%YAML:1.0
---
opencv_ml_svm:
   format: 3
   svmType: NU_SVR
   kernel:
      type: RBF
      gamma: 9.9500000476837158e-02
   C: 1.
   nu: 1.7890000343322754e-01
   term_criteria: { iterations:5000 }
   var_count: 29
   sv_total: 4711
   support_vectors:
      - [ 2.32003570e+00, 2.05592895e+00, -5.39626122e-01,
          -2.75977993e+00, 1.49733865e+00, 2.09643149e+00,
          -7.08311558e-01, 7.99602792e-02, -1.88151646e+00,
          1.46606791e+00, 7.92697892e-02, 4.31393355e-01,
          -3.36742520e-01, 1.35585892e+00, -2.17702851e-01,
          -6.33110583e-01, 1.20473847e-01, 2.36697063e-01,
          7.05156997e-02, 9.02263001e-02, 2.63302147e-01,
          -2.02047333e-01, -5.27229980e-02, -1.63790911e-01,
          1.75772086e-02, -9.85258073e-02, -1.52637288e-02,
          5.47216972e-03, -1.30474579e-03 ]
      - [ 6.51241779e+00, -1.66319001e+00, -1.47337824e-01,
          1.72294593e+00, -7.42178142e-01, -5.00073671e-01,
          8.34001005e-01, -8.00433457e-02, -1.68427622e+00,
          -1.32764673e+00, -4.83334661e-01, 3.45098585e-01,
          -4.84631628e-01, 3.29812229e-01, -7.44935095e-01,
          4.10472155e-01, -9.98864770e-02, -9.95616391e-02,
          1.97968528e-01, 9.55962110e-03, -3.75369899e-02,
          4.32377383e-02, -9.21905637e-02, 3.38019282e-02,
          7.77787119e-02, 1.45223094e-02, 1.54080251e-02, 9.27403849e-03,
          6.45123888e-03 ]
      - [ -1.81857586e-01, -4.45240028e-02, -3.66550469e+00,
          -1.59966862e+00, 9.24483836e-01, -4.26629257e+00,
          2.35670161e+00, 1.28351375e-01, 3.34596062e+00, 1.03802168e+00,
          3.09709716e+00, 3.51135683e+00, 6.91908181e-01, 2.50640631e+00,
          6.10225797e-01, -6.82843268e-01, -4.65424120e-01,
          -5.49225844e-02, 6.96192011e-02, 4.78110835e-02,
          1.75715730e-04, -5.45383729e-02, -7.28663430e-02,
          -1.53621119e-02, -4.31588963e-02, 8.10371712e-03,
          7.39989476e-03, -4.93724085e-03, -4.59154835e-03 ]
      - [ 4.76732969e+00, -2.13648963e+00, 1.06597424e+00,
          7.59210289e-01, -9.49403420e-02, 2.28410557e-01,
          4.52308863e-01, -1.22720516e+00, 8.35503757e-01,
          -3.33860338e-01, 2.85227239e-01, 3.05260599e-01,
          2.04686791e-01, -6.75500631e-01, -5.63987345e-02,
          -5.37859239e-02, -1.50827855e-01, 1.05721146e-01,
          -1.16737895e-01, -4.72040363e-02, 4.38198186e-02,
          4.89957370e-02, 1.12640992e-01, -5.65669965e-03,
          2.95225549e-02, 2.23382115e-02, 8.96864384e-03, 2.50303056e-02,
          6.05315017e-03 ]
      - [ -2.63448834e+00, 5.16431868e-01, -2.66701889e+00,
          6.13171816e-01, -7.56932795e-01, 7.79204965e-01,
          1.38568258e+00, -1.23861790e+00, -6.21219873e-01,
          -2.61117786e-01, -1.55373025e+00, 8.83270204e-01,
          -4.38164830e-01, -6.17569327e-01, -3.51979882e-01,
          7.93693244e-01, 2.29303733e-01, 1.73831377e-02,
          -6.06476068e-01, 1.70739919e-01, 2.39828557e-01,
          1.43902168e-01, 3.58282812e-02, 6.86802994e-03,
          -6.80508912e-02, 9.35214162e-02, -6.16883934e-02,
          -2.66243313e-02, -1.80448480e-02 ]
      - [ 1.39589977e+00, 9.94084477e-01, 5.58334947e-01,
          -1.30842483e+00, -1.00404911e-01, -2.75807828e-01,
          -6.58648670e-01, -1.21187401e+00, -1.19355179e-01,
          3.07646066e-01, 4.03418660e-01, -7.97207415e-01,
          8.85423839e-01, -3.80712330e-01, -3.02625626e-01,
          -1.55116424e-01, -1.67950824e-01, 1.40048280e-01,
          -1.45083174e-01, 3.25782329e-01, 6.34788126e-02,
          -2.68897384e-01, 4.72657382e-02, 4.03810032e-02,
          -1.10035548e-02, -1.99795188e-03, -5.07859280e-03,
          2.68917787e-03, -5.40800532e-03 ]
      - [ 1.75800368e-01, -1.78892112e+00, 1.27935469e-01,
          1.80790532e+00, 1.90589741e-01, 5.13922572e-01,
          -6.47320807e-01, -2.96032667e-01, 7.51882493e-01,
          -4.50214863e-01, 7.05086291e-02, -6.37379467e-01,
          7.36751735e-01, 3.95597130e-01, -6.25260472e-02,
          1.44707739e-01, 2.68470258e-01, 3.30082257e-03, 3.39057222e-02,
          -1.03610799e-01, -1.66744813e-01, -5.84941059e-02,
          9.02142096e-03, 3.47727127e-02, 2.43215226e-02, 6.57124296e-02,
          -1.20983981e-02, -1.41453336e-03, 7.67690502e-03 ]
      - [ 3.97129565e-01, 4.83940095e-01, -5.11981487e+00,
          -1.35025263e+00, 2.62116790e+00, -2.01429772e+00,
          1.05252266e+00, -5.56360424e-01, 1.72030306e+00,
          5.64754903e-01, 2.30498958e+00, 2.72037768e+00,
          -7.49869466e-01, 1.18577647e+00, 3.08120809e-02,
          -1.63050607e-01, 2.41162896e-01, -1.17739946e-01,
          6.88292161e-02, -8.21989179e-02, -9.36806723e-02,
          -9.09613222e-02, -4.61315215e-02, 5.04741110e-02,
          -4.62238900e-02, -1.01371100e-02, 1.54309906e-02,
          2.35910271e-03, 1.46491742e-02 ]
      - [ -2.14243770e+00, -3.76448601e-01, -2.96198034e+00,
          2.46757820e-01, -1.03211510e+00, 2.39741713e-01,
          1.88254058e+00, 3.54894400e-01, 5.62754929e-01,
          -5.78806847e-02, -2.52356815e+00, -9.69111681e-01,
          -1.00658350e-01, -1.56497851e-01, 9.36553121e-01,
          -1.21364331e+00, -1.13592064e+00, 4.15129572e-01,
          -2.78017253e-01, -1.90920442e-01, 1.38144210e-01,
          -3.95582952e-02, 4.24554497e-02, -7.50718964e-03,
          3.39432061e-02, 4.98909317e-02, 1.63324028e-02, 1.50283277e-02,
          -1.68498210e-03 ]
      - [ -3.23923856e-01, 2.81250238e+00, -1.37666428e+00,
          -8.18913460e-01, 5.00431359e-01, -1.94595349e+00,
          -8.04724172e-02, -4.85346496e-01, 3.68082881e-01,
          2.25137413e-01, 1.61062026e+00, 7.55786955e-01, 8.60281169e-01,
          -5.23350015e-02, 3.81864697e-01, -2.79408157e-01,
          1.92572355e-01, 8.88078570e-01, -2.01192170e-01,
          2.90050264e-02, 1.85545713e-01, -2.69518077e-01,
          -7.04525877e-03, 1.11518078e-03, -6.23978712e-02,
          -9.01142210e-02, 2.13267691e-02, -6.01968961e-03,
          1.17969105e-03 ]
      - [ 6.60286570e+00, -1.28516722e+00, -3.37362945e-01,
          6.02838159e-01, -1.29035747e+00, -1.07512748e+00,
          6.61541522e-01, 3.72401416e-01, -1.31048298e+00,
          -1.94790080e-01, -3.38679463e-01, -6.66049778e-01,
          -4.55945432e-01, 3.30845892e-01, -7.13273704e-01,
          2.87288994e-01, -3.00348222e-01, -1.30034834e-01,
          2.69552559e-01, -2.27231443e-01, -1.40146941e-01,
          -1.51340574e-01, -4.62639816e-02, -1.04425533e-03,
          -8.22617207e-03, 7.23751783e-02, -1.35004474e-02,
          -2.39958446e-02, -7.06787594e-03 ]
      - [ -1.33453763e+00, -6.33042693e-01, -2.51413345e-01,
          1.79101741e+00, 5.59066713e-01, 3.26208442e-01,
          -4.22059655e-01, 1.42721519e-01, 5.68375230e-01,
          1.13658595e+00, 3.52456152e-01, -9.40708816e-01,
          1.20034909e+00, 9.00992528e-02, 7.09945500e-01,
          -3.64605814e-01, -3.07773918e-01, -4.22382295e-01,
          2.23873705e-02, 3.13077495e-02, 1.73131004e-02,
          -3.90506387e-02, -1.66906684e-03, 1.60625149e-02,
          -8.42959899e-03, -2.26751007e-02, 4.20655310e-03,
          -1.02062551e-02, -2.17685220e-03 ]
      - [ -5.69665670e-01, 2.52200270e+00, 1.02627325e+00,
          1.12060189e+00, -2.28526783e+00, 9.59221244e-01,
          -4.14273643e+00, 1.54070854e+00, 1.23778069e+00,
          3.59251380e-01, -1.91743836e-01, 2.27591968e+00,
          -3.89784247e-01, -3.37696403e-01, 2.09335759e-01,
          4.20712352e-01, -6.50915742e-01, -1.63501814e-01,
          -9.77922082e-01, 5.35170734e-01, -3.52889389e-01,
          -1.07460082e-01, -4.94750449e-03, -4.23190631e-02,
          -5.25812916e-02, -2.49520727e-02, -3.77580058e-03,
          3.41702113e-03, 6.06972957e-03 ]
      - [ -2.40844011e+00, 6.95860162e-02, -1.23765314e+00,
          1.00065863e+00, 9.55507755e-01, -1.17079008e+00,
          7.92809576e-02, -1.34078276e+00, -2.74867386e-01,
          1.44451451e+00, 1.18009698e+00, 3.67460668e-01, 7.77151227e-01,
          7.74839282e-01, 7.83410549e-01, -1.34640479e+00,
          1.25759944e-01, 8.69118392e-01, 1.16195843e-01, 2.78516382e-01,
          8.65086988e-02, 2.67672334e-02, -6.93554282e-02,
          -8.63630616e-04, -3.36907730e-02, -4.47510928e-02,
          -2.20606002e-04, -1.55747384e-02, 5.79709187e-03 ]
      - [ -1.38252294e+00, 1.37695098e+00, 2.17186093e+00,
          -1.41245556e+00, 4.91189271e-01, 3.77589256e-01,
          3.13091457e-01, -5.01181781e-01, 6.28483474e-01,
          3.77919227e-01, 7.20633924e-01, -1.40635204e+00,
          7.33562291e-01, 5.91968477e-01, 2.74076343e-01, 4.09144610e-01,
          7.40672052e-02, -4.81057882e-01, -7.14286119e-02,
          -7.85597637e-02, 4.99912687e-02, 4.44915503e-01,
          -1.14817256e-02, 4.72424589e-02, 1.67622119e-02,
          -2.04568803e-02, 5.24264500e-02, 4.61427867e-02,
          8.70732032e-03 ]
      - [ 1.02733195e+00, 7.17168152e-01, 6.29481614e-01,
          -1.07453060e+00, -7.68033147e-01, -4.60280001e-01,
          -8.04927528e-01, 9.04116869e-01, -8.10999334e-01,
          -7.67189384e-01, -3.19418386e-02, 1.21328153e-01,
          3.52268577e-01, -2.78676953e-02, -2.58611478e-02,
          -1.86494827e-01, 1.96302921e-01, 4.93252814e-01,
          1.10098422e-01, 1.61257431e-01, -1.22190773e+00,
          -1.04486562e-01, 3.91685143e-02, -1.97983310e-02,
          -2.51329560e-02, -3.17457803e-02, -1.79622206e-03,
          2.67109764e-03, -4.61765798e-03 ]
      - [ 6.00195583e-03, -1.08046722e+00, 8.46337557e-01,
          1.41949034e+00, -1.36000431e+00, 5.56515276e-01,
          -1.29500449e+00, -1.23832740e-01, 1.27317405e+00,
          -3.96584749e-01, 9.65217426e-02, -3.54537338e-01,
          -7.91254342e-01, 5.86775780e-01, 6.90484345e-01,
          -1.95536405e-01, 9.77390036e-02, 2.02861041e-01,
          -6.12286925e-02, 1.70092527e-02, -1.36183023e-01,
          -6.30593821e-02, -1.09432377e-02, -1.97730809e-02,
          2.34531276e-02, 6.73194304e-02, -9.92538873e-03,
          -5.17445034e-04, 1.81681325e-03 ]
      - [ -2.20491600e+00, 1.55489933e+00, -2.13036084e+00,
          6.68626308e-01, 2.47961834e-01, 1.76992670e-01, 1.38558865e+00,
          -1.42786527e+00, -4.67942625e-01, 2.24384397e-01,
          -4.23769772e-01, 8.81911457e-01, 2.72901803e-01,
          -4.44638789e-01, 3.09810787e-02, 2.71513551e-01,
          4.72066626e-02, 2.06976295e-01, -1.87792882e-01,
          -7.97714442e-02, -2.98835430e-03, -3.17748450e-03,
          2.44464763e-02, 2.07803287e-02, -1.28194559e-02,
          7.29517341e-02, -1.65277850e-02, -2.26973947e-02,
          7.32034852e-04 ]
      - [ 4.74233437e+00, -1.71342123e+00, 9.84766841e-01,
          7.01985776e-01, -2.55013913e-01, -6.54029548e-01,
          8.26985598e-01, 1.55111030e-01, -1.41871631e+00,
          -1.15731132e+00, -2.33135939e-01, 6.05474651e-01,
          -2.36599371e-01, 2.64280885e-01, -3.24054450e-01,
          -4.10817146e-01, -1.28164992e-01, -1.58843592e-01,
          -3.71861383e-02, 1.82736218e-02, 8.96464512e-02,
          8.46458450e-02, 2.87426621e-01, -4.90765609e-02,
          3.77597986e-03, 3.44940722e-02, 2.57416498e-02, 1.55724762e-02,
          7.83015136e-03 ]
      - [ 2.74517983e-01, 4.87880564e+00, 1.76758051e+00, 7.69129395e-01,
          -1.38246250e+00, 3.99173260e-01, -2.80664492e+00,
          1.49595881e+00, 1.18399930e+00, -1.56048954e-01,
          5.05734757e-02, 8.24629128e-01, -1.79717198e-01,
          -3.80497813e-01, 2.73990750e-01, 4.44864839e-01,
          -5.45753658e-01, -3.08639377e-01, -1.36866426e+00,
          8.43666017e-01, -3.75013083e-01, -5.38506396e-02,
          -1.92650016e-02, 1.87373906e-02, 4.68540750e-03,
          -4.51122448e-02, 4.40654065e-03, 1.92594831e-03,
          -6.48220675e-03 ]
      - [ 4.82651740e-01, 2.93925591e-02, -1.27741075e+00,
          -2.98833847e+00, -2.58421326e+00, 2.29435563e+00,
          1.06851435e+00, 1.06022882e+00, -7.24835515e-01,
          -5.97986639e-01, -1.34416282e+00, 1.67828166e+00,
          -1.81424201e-01, 4.08205204e-03, -3.87783736e-01,
          -2.55901754e-01, -5.18694185e-02, -9.55846533e-02,
          -3.01904529e-01, -5.17503083e-01, 1.02953933e-01,
          -1.41110495e-01, -2.19428819e-02, -7.75866807e-02,
          -6.27338290e-02, -6.13612495e-02, -4.86727804e-03,
          3.30628455e-03, 2.84677069e-03 ]
      - [ 1.18327188e+00, -1.37489700e+00, 6.18146539e-01,
          -7.71642178e-02, -1.27279550e-01, -2.63934940e-01,
          -2.90368199e-01, 4.59169388e-01, -1.12999284e+00,
          -1.17168081e+00, -1.43921554e-01, 5.70568204e-01,
          4.14567173e-01, 2.34661892e-01, 9.73320156e-02,
          -1.11422777e-01, 3.22516948e-01, 4.16781276e-01,
          1.27240852e-01, -1.43972039e-01, -6.11189246e-01,
          1.85850933e-02, 5.47484793e-02, -2.42094249e-02,
          -1.39205223e-02, -8.27790517e-03, 4.69823414e-03,
          8.33103526e-03, 1.14395311e-02 ]
      - [ 3.30066353e-01, 1.25190485e+00, -2.23485136e+00,
          -2.11741972e+00, 1.21688962e+00, -2.65920818e-01,
          -1.76368856e+00, 7.63441086e-01, -4.49057370e-01,
          2.84728408e-01, 1.22799538e-01, -1.26051652e+00,
          -6.69798136e-01, -6.83694422e-01, -4.68619019e-01,
          -1.33095533e-01, -3.71347219e-01, 5.80692351e-01,
          -1.16395541e-01, -1.66208018e-02, 1.35556236e-01,
          -1.25069365e-01, 7.37055391e-02, 4.39490676e-02,
          5.19605242e-02, 7.02775037e-03, 8.83708149e-03,
          -5.58453193e-03, -6.45058788e-03 ]
      - [ 5.86418915e+00, -2.70599437e+00, 3.95060301e-01,
          4.97161537e-01, -1.12825978e+00, -9.32723731e-02,
          3.68082702e-01, -1.03488994e+00, 1.18626273e+00,
          -2.87858337e-01, 7.64580294e-02, -1.08901334e+00,
          -2.71485895e-01, 1.57946385e-02, -6.90362155e-01,
          -1.20513149e-01, -3.71575803e-01, 6.00291241e-04,
          1.65875480e-01, -2.26562517e-03, 4.89457212e-02,
          -1.26048133e-01, 1.18873259e-02, -2.18617208e-02,
          -1.06506767e-02, 8.24034959e-03, -2.81623974e-02,
          2.01490056e-03, -6.27413439e-03 ]
      - [ -1.67722797e+00, 4.38809752e-01, -1.19301653e+00,
          1.11777520e+00, 5.57357252e-01, -1.14505279e+00,
          -6.78085804e-01, -1.57567215e+00, -1.16907525e+00,
          -1.97814798e+00, 6.08219802e-01, -1.14285886e-01,
          2.89517194e-01, 7.49341011e-01, -2.18584135e-01,
          2.84779042e-01, 1.34633869e-01, 7.75478557e-02, 1.40059739e-01,
          4.07289594e-01, 4.44288552e-02, 1.01417407e-01, 1.89828034e-03,
          2.78559439e-02, -5.28397560e-02, 1.23094954e-02,
          -3.22575904e-02, -1.51718361e-02, -6.91860449e-04 ]
      - [ 2.35866237e+00, -2.44393423e-02, -3.11632824e+00,
          -1.38836920e+00, -1.36749446e-01, 2.04277110e+00,
          -9.63763356e-01, 4.00345594e-01, -1.65843356e+00,
          6.43351078e-01, -6.58643603e-01, -1.12155497e+00,
          -1.20895553e+00, 2.11507297e+00, -6.47586823e-01,
          -2.37173475e-02, 4.11765993e-01, -1.44362360e-01,
          2.29939833e-01, 3.72382045e-01, 2.50367355e-02,
          -9.07525867e-02, -4.91120387e-03, 8.69106203e-02,
          -4.92218044e-03, -5.75879551e-02, -1.87101122e-02,
          1.64291821e-02, -4.97609889e-03 ]
      - [ 1.28974257e+01, 4.43766260e+00, -1.63128459e+00,
          1.84003448e+00, -2.58651757e+00, -6.13552213e-01,
          -3.52943629e-01, -6.56808555e-01, 8.66743445e-01,
          7.17303678e-02, -3.17752540e-01, 1.13215792e+00,
          -1.22215354e+00, -2.72280860e+00, 2.11520934e+00,
          7.19779074e-01, 1.25594604e+00, -2.90338188e-01,
          9.18418348e-01, 8.62947464e-01, 1.16711348e-01,
          -5.14483191e-02, -2.94322930e-02, 6.35623261e-02,
          -1.76231578e-01, 8.80764276e-02, -3.74503620e-02,
          6.60261959e-02, -8.48368276e-03 ]
      - [ 1.00552464e+01, 4.91767931e+00, 2.97803378e+00, 2.35024881e+00,
          5.29704523e+00, -1.98592415e+01, -9.05757236e+00,
          -5.25291586e+00, 1.46152008e+00, 2.06473899e+00,
          -1.20557632e+01, -2.06187630e+00, 3.14024508e-01,
          1.20851195e+00, 2.05860090e+00, 1.07873106e+00, 4.50820732e+00,
          -1.30925858e+00, -3.06319284e+00, -3.61368155e+00,
          -1.22741807e+00, -2.94506520e-01, -4.75189060e-01,
          5.83595075e-02, -4.00185078e-01, -3.15393984e-01,
          2.38140926e-01, 4.93031777e-02, -5.14176935e-02 ]
      - [ 2.70617676e+00, 1.61747146e+00, -3.91800237e+00,
          -8.67100418e-01, 1.89711317e-01, 2.62292504e+00,
          -1.75990140e+00, 3.03932524e+00, 2.23199338e-01,
          4.38282549e-01, -1.48694003e+00, -1.03399493e-01,
          2.95566708e-01, 5.11891507e-02, -1.70979276e-01,
          2.11177498e-01, -1.06454408e+00, 4.03872132e-01,
          -5.27037024e-01, 7.80790821e-02, 9.50118229e-02,
          -1.62200965e-02, 1.03141271e-01, -8.66978467e-02,
          8.25701058e-02, -4.00947966e-02, -6.91961171e-03,
          3.55889642e-04, -8.31037108e-03 ]
      - [ -2.33175421e+00, -1.81591642e+00, 1.42704999e+00,
          7.71323800e-01, -3.50774795e-01, -7.84827709e-01,
          -1.52558994e+00, 5.52260922e-03, -8.02286685e-01,
          2.20330954e+00, -6.14590108e-01, 1.47573173e+00,
          -3.34242135e-01, 1.42789435e+00, 5.69595024e-03,
          -4.18620050e-01, 5.64226210e-01, -3.43989097e-02,
          3.69659036e-01, 1.78453952e-01, -4.88010682e-02,
          4.01547067e-02, -8.06613341e-02, 1.19240033e-02,
          4.79543395e-02, 3.91356982e-02, -3.24398205e-02,
          -5.00480179e-03, 1.00259269e-02 ]
      - [ -1.28995240e+00, 8.19818735e-01, -2.88552451e+00,
          -7.31457055e-01, 6.31510139e-01, -2.60935211e+00,
          1.92215300e+00, -3.12962174e-01, 1.97778904e+00,
          6.28517032e-01, 9.04385090e-01, 1.69330490e+00, 5.45506597e-01,
          9.27430093e-01, 4.02532578e-01, -4.23567891e-01,
          -6.23155236e-01, 6.49924725e-02, -9.44547057e-02,
          -5.34172393e-02, 5.62159643e-02, -2.25864440e-01,
          -7.78812682e-03, -1.17650433e-02, -1.17085809e-02,
          -1.86704472e-02, 1.09383808e-02, -9.02391318e-03,
          2.68703862e-03 ]
      - [ -2.67886662e+00, -1.21158206e+00, -1.94978547e+00,
          2.61957836e+00, -3.38762939e-01, -1.03128219e+00,
          1.11761045e+00, 2.12925911e-01, 1.16370320e+00,
          -8.60162199e-01, 3.65730941e-01, 9.32218850e-01,
          -1.00004613e+00, 3.30273062e-01, -7.06304014e-01,
          6.79463208e-01, 7.15447903e-01, 6.32374346e-01, 3.05792391e-01,
          -1.63010746e-01, -9.67996418e-02, 8.27226043e-02,
          6.85138488e-03, -4.79883561e-03, 2.01554727e-02,
          1.42370239e-01, -3.61917689e-02, -1.53160049e-02,
          -5.36749030e-05 ]
      - [ 5.19702148e+00, -1.01011825e+00, 3.33058178e-01,
          -1.94455132e-01, -4.58580852e-01, -1.55918515e+00,
          6.84470534e-01, 7.06522524e-01, -8.30813944e-01,
          -7.49193609e-01, -1.09900370e-01, -4.15282309e-01,
          1.09492600e-01, -6.15618646e-01, -3.93426977e-02,
          -7.12637007e-01, -7.28351548e-02, -2.28506118e-01,
          3.61225933e-01, -1.38904555e-02, -1.68390945e-01,
          -4.81118932e-02, 1.16698824e-01, -8.52855295e-03,
          -3.37274298e-02, 6.68863207e-02, -3.19366269e-02,
          1.77164339e-02, -1.10389227e-02 ]
      - [ -2.02047229e-01, 1.06126285e+00, 1.89770848e-01,
          1.86141801e+00, -6.28716648e-01, 3.14607739e-01,
          -3.26161146e-01, 7.18876004e-01, 1.21847153e+00,
          3.13315600e-01, -1.16736747e-01, -1.43427408e+00,
          1.80651084e-01, 2.80137956e-01, 7.69630432e-01, 1.41210318e-01,
          -5.25897920e-01, 3.89735475e-02, 4.38776493e-01,
          -3.08061302e-01, -3.28850007e+00, 2.15570331e-01,
          -1.86944734e-02, -1.36579452e-02, 7.86293224e-02,
          2.44826097e-02, 8.78801104e-03, 1.21063916e-02,
          -1.72067131e-03 ]
      - [ 5.95961618e+00, -1.99753797e+00, 7.60450900e-01,
          1.71406507e+00, -4.69627142e-01, -4.16703010e-03,
          6.35440707e-01, -7.94694126e-01, 1.09137368e+00,
          -9.50521350e-01, -4.35599536e-02, -4.02641565e-01,
          -2.86359787e-01, -1.65473327e-01, -2.36687556e-01,
          -8.19985010e-03, 2.71059275e-01, 9.46207047e-02,
          6.85810344e-03, -3.37748230e-02, 1.51938498e-02,
          7.46339932e-03, 6.29898682e-02, -1.95046328e-02,
          -1.08818589e-02, 1.35119455e-02, -2.26503797e-02,
          1.32474788e-02, 4.39460529e-03 ]
      - [ -2.49344182e+00, -6.95947051e-01, -7.83062994e-01,
          2.14804339e+00, -2.41966605e-01, -2.46057615e-01,
          -6.18999600e-01, -3.31237048e-01, -1.00683093e-01,
          7.39851177e-01, 5.98907351e-01, 2.15602875e-01,
          -6.89559206e-02, -6.68396831e-01, -6.27828300e-01,
          2.89587349e-01, 2.61593789e-01, -2.20341206e-01,
          -2.62179831e-03, -7.60060847e-02, 2.11884882e-02,
          3.58832143e-02, 3.10565415e-03, -8.69680475e-03,
          -8.24485905e-03, 8.29532649e-03, -2.36136056e-02,
          -1.83216967e-02, 4.97607049e-04 ]
      - [ 4.46835428e-01, 3.65581012e+00, -1.00130928e+00,
          -5.25801599e-01, 2.74104285e+00, 2.74505663e+00,
          1.22429058e-01, -7.99433962e-02, -1.52896321e+00,
          1.08596075e+00, 3.79573941e-01, 2.50348330e-01, 3.90342712e-01,
          4.74156737e-01, 1.62950918e-01, -6.15055084e-01,
          6.63827002e-01, 6.78606749e-01, -3.91996503e-01,
          2.00685672e-02, 4.75698188e-02, -9.54397842e-02,
          -4.72027808e-02, -1.51209921e-01, -1.77638524e-03,
          1.03754010e-02, -5.54146711e-03, -1.16610900e-02,
          7.42288213e-03 ]
      - [ 1.73862565e+00, -1.49542403e+00, 4.20169473e-01,
          2.10257936e+00, -9.01576206e-02, 1.07251592e-01,
          3.15140277e-01, -6.98901638e-02, -1.32956302e+00,
          1.02399445e+00, -1.77188367e-01, 2.78622866e-01,
          -8.70232955e-02, 1.69049084e+00, 2.46384535e-02,
          -5.92283681e-02, 6.86334610e-01, -1.20789252e-01,
          2.24114150e-01, 1.04116172e-01, -7.05531538e-02,
          -5.36153186e-03, -2.42378637e-02, 4.58593145e-02,
          8.60623047e-02, 5.95424026e-02, -1.56436879e-02,
          1.48042897e-02, 1.24728894e-02 ]
      - [ -8.48778665e-01, 2.09539819e+00, 1.74836910e+00,
          -1.87013054e+00, 6.00044668e-01, -1.61487862e-01,
          1.20348841e-01, 1.41356528e-01, -1.05044973e+00,
          3.42934042e-01, 3.68033856e-01, -2.33234074e-02,
          1.02943575e+00, 1.69392124e-01, 9.01552066e-02,
          -1.60396285e-02, 6.35618418e-02, -3.32720041e-01,
          -1.28788531e-01, 2.65997536e-02, 2.06885755e-01,
          -1.57798454e-01, -5.48397936e-03, 2.70049311e-02,
          -7.33703980e-03, -2.39153625e-03, 1.32977618e-02,
          -1.24339610e-02, -6.29395805e-03 ]
      - [ -1.81913364e+00, 1.03511500e+00, -4.15355492e+00,
          -8.06229711e-01, 5.76677442e-01, -3.23845267e+00,
          2.37007380e+00, -9.74314511e-01, 2.35573030e+00,
          6.86338603e-01, 2.19335601e-01, 1.76667321e+00, 3.67841184e-01,
          1.51621056e+00, 8.21799934e-01, -1.30389810e+00,
          -1.15713406e+00, 1.88984320e-01, 8.10615867e-02,
          8.82663056e-02, -2.06616125e-03, -2.30423629e-01,
          -1.65748522e-02, 3.26994844e-02, 3.65945399e-02,
          1.38685822e-01, 4.71231760e-03, -7.13260612e-03,
          2.03472748e-03 ]
      - [ 5.51237285e-01, 8.74790013e-01, -4.04811716e+00,
          -4.75536138e-01, -1.70522541e-01, -2.50478053e+00,
          3.78455482e-02, 1.02838504e+00, 1.80215538e+00, 1.27242848e-01,
          1.02472246e+00, -4.84458864e-01, 1.24248481e+00,
          5.08691296e-02, 3.65901232e-01, 3.79624754e-01, 1.03782701e+00,
          2.10940838e-01, 4.39281277e-02, 6.02983475e-01, 2.46196389e-02,
          1.55755982e-01, 3.68180615e-03, 1.87524751e-01, 5.10882586e-02,
          -3.05463299e-02, -2.20984835e-02, -1.65115725e-02,
          -4.55748662e-03 ]
      - [ 1.43341303e+00, 3.20065403e+00, -4.48906088e+00,
          5.58589697e-01, -1.91955614e+00, -1.48815155e+00,
          -1.52447116e+00, -2.54808092e+00, -1.80111790e+00,
          4.51541334e-01, 5.51703036e-01, -1.32512271e+00,
          -5.23310423e-01, 2.65382320e-01, -3.60065997e-01,
          1.19217360e+00, 4.36694056e-01, 3.51838171e-02,
          -2.22619027e-01, 6.10476732e-01, -3.07065576e-01,
          -2.37967044e-01, 3.76501158e-02, 8.44791904e-02,
          -6.04896173e-02, -2.39758641e-02, -3.94580998e-02,
          2.41293162e-02, 4.47358796e-03 ]
      - [ 4.16966915e+00, -2.62788224e+00, 1.68008089e-01,
          1.18012619e+00, -1.90704986e-01, 1.76783860e-01,
          3.22290003e-01, -1.23024690e+00, 4.68206257e-01,
          -1.03303158e+00, 4.30580927e-03, -4.21356529e-01,
          2.27723867e-01, -4.07854989e-02, -3.08502883e-01,
          2.48706132e-01, 2.58607455e-02, -3.45890939e-01,
          2.51110196e-01, 4.63786758e-02, -1.90354269e-02,
          1.21242078e-02, 1.10816315e-01, 1.35587389e-02, 3.31877023e-02,
          -1.26002086e-02, -2.62315897e-03, 2.19994877e-02,
          8.16073734e-03 ]
      - [ 4.34219742e+00, 1.83241999e+00, -5.57434511e+00,
          -1.15112329e+00, 1.39498484e+00, 2.00093940e-01,
          -1.50491798e+00, -5.95438242e-01, -1.35393059e+00,
          1.07647383e+00, 1.33591905e-01, -1.92710268e+00,
          1.58473045e-01, -2.62371510e-01, -6.12205982e-01,
          1.12802887e+00, 1.45329684e-01, -1.22450255e-01,
          4.46370095e-01, 4.14598525e-01, 3.05563807e-01,
          -4.23683643e-01, 6.77106082e-02, -3.59976500e-01,
          2.41751179e-01, 7.02153444e-02, -7.37790391e-02,
          2.47719474e-02, -6.83717709e-03 ]
      - [ -3.09141088e+00, -1.22781968e+00, -4.41479176e-01,
          1.33159971e+00, -1.43242493e-01, 2.04688832e-01,
          -3.55464369e-01, -1.21174470e-01, -1.05591798e+00,
          3.32845718e-01, -2.59627104e-01, -3.34571540e-01,
          1.45010203e-01, 6.87895238e-01, -7.11518377e-02,
          -1.36358425e-01, -3.65949683e-02, -5.50196394e-02,
          1.55276120e-01, 1.20822489e-01, 5.70628680e-02, 6.72806859e-01,
          -4.17666584e-02, -4.05478589e-02, -1.70964882e-01,
          8.37232396e-02, -1.55044189e-02, 6.88284189e-02,
          -8.85856617e-03 ]
      - [ 5.60599089e+00, -9.65337694e-01, -2.68825322e-01,
          1.14741969e+00, -8.66840243e-01, -7.05915689e-01,
          6.97305858e-01, 2.45407760e-01, -1.38001609e+00,
          -4.43058997e-01, -2.62009650e-01, -6.54379129e-01,
          -2.78853357e-01, 4.83434588e-01, -5.72581470e-01,
          4.54942316e-01, -2.93492645e-01, -1.71476647e-01,
          1.15353994e-01, 1.64546333e-02, -1.96637884e-01,
          -1.53566450e-01, -1.24758109e-02, -2.45930767e-03,
          -4.78267297e-03, 1.47114554e-02, -3.68198417e-02,
          6.64322032e-03, -1.36176444e-04 ]
      - [ 5.36445856e+00, -8.65184665e-01, -3.21860284e-01,
          9.08137381e-01, -1.17415106e+00, -9.80235219e-01,
          6.09916031e-01, 2.59887993e-01, -1.30762851e+00,
          -3.00899535e-01, -1.38218030e-01, -7.76655138e-01,
          -6.16031528e-01, 1.89500153e-01, -2.45476872e-01,
          4.82933044e-01, -2.36471981e-01, -2.59210557e-01,
          4.98037674e-02, 6.74701706e-02, -7.99886286e-02,
          -1.74081266e-01, -1.45392949e-02, -2.28397851e-03,
          -6.43894426e-04, 4.76212008e-03, -4.21831198e-02,
          1.16547504e-02, -4.05024784e-03 ]
      - [ 6.03791475e+00, 5.11699629e+00, -5.95064068e+00,
          5.22850323e+00, -2.53864384e+00, 8.23397040e-01,
          -1.94406763e-01, -2.49282643e-01, -7.62203574e-01,
          -1.72966790e+00, -6.05803728e-01, -1.52367353e+00,
          -1.10699475e+00, 7.65216887e-01, 1.02279711e+00,
          2.19844031e+00, 1.69226348e+00, 3.13043177e-01, 1.14387894e+00,
          3.17666411e-01, 6.03037119e-01, -3.68963510e-01,
          4.60187644e-02, 1.35148227e-01, -4.84783277e-02,
          4.90622520e-02, -4.27927971e-02, 5.04167341e-02,
          4.37834440e-03 ]
      - [ -3.58852386e+00, -1.47871435e+00, -1.13012338e+00,
          1.36491966e+00, -9.14151892e-02, -8.31053078e-01,
          1.61859453e-01, 1.14966571e-01, 2.27144286e-01,
          -3.21923971e-01, 7.14111477e-02, -4.44297008e-02,
          -1.05631270e-01, -5.96814491e-02, -7.12253034e-01,
          5.35096228e-02, -2.96725601e-01, 1.67179238e-02,
          6.79654181e-02, -2.14284331e-01, -3.33884396e-02,
          2.04710677e-01, 1.32625364e-02, -5.31142727e-02,
          -7.62917250e-02, 5.31798005e-02, -2.99589224e-02,
          -4.13816981e-03, -6.16864907e-03 ]
      - [ -1.49198020e+00, -3.85176837e-01, -1.76232576e+00,
          -1.01754415e+00, 1.73312128e+00, 2.14328742e+00,
          1.67948258e+00, 1.39741266e+00, 5.27382374e-01, 3.59717727e-01,
          -3.26010060e+00, -2.02477381e-01, -1.19277656e+00,
          1.77172196e+00, 4.53380615e-01, -1.06379159e-01,
          -2.22292513e-01, -4.78420034e-02, 2.51042187e-01,
          4.58124459e-01, -1.27273858e-01, 2.14807928e-01,
          -1.18124401e-02, 2.96142660e-02, -1.10150622e-02,
          3.16282894e-05, 2.52964860e-03, 4.63704839e-02, 2.44888803e-03 ]
      - [ 1.28422737e+00, -1.27682686e+00, 2.11282229e+00,
          9.74736065e-02, -5.03078341e-01, 8.79421234e-01,
          -7.15442479e-01, -1.92940974e+00, 8.50736856e-01,
          -4.45984185e-01, 3.52456808e-01, 3.89618218e-01,
          -3.06864470e-01, 7.32703805e-01, -1.27717644e-01,
          -1.06873848e-01, 2.29705665e-02, -3.34106565e-01,
          -2.22489193e-01, 8.11882392e-02, -1.72192946e-01,
          1.35959312e-02, -6.61009829e-03, -1.96594484e-02,
          3.49390134e-02, 1.03541072e-02, -3.25071020e-03,
          9.81106889e-03, 1.27498545e-02 ]
      - [ -9.75086510e-01, -7.22298145e-01, 1.00677013e+00,
          -2.95154929e-01, -1.22887075e+00, 2.58222699e-01,
          -9.42104340e-01, -1.41923022e+00, -3.26781832e-02,
          1.69385169e-02, 5.28702378e-01, 1.25678271e-01,
          -8.32588732e-01, -2.33259171e-01, 1.19364969e-02,
          8.86982009e-02, -2.50686914e-01, -5.97135574e-02,
          1.36505798e-01, -2.44831070e-02, -9.92856920e-02,
          -1.15797326e-01, -7.92299677e-03, -4.74518575e-02,
          1.26087209e-02, -1.00612817e-02, -3.39940726e-03,
          -1.35420880e-03, 1.29846558e-02 ]
      - [ -3.04545426e+00, -1.32901430e+00, -2.22644043e+00,
          1.04730475e+00, 2.69492245e+00, 5.20096123e-01,
          -2.43342012e-01, -8.41616169e-02, -1.65829986e-01,
          -6.35484159e-02, 4.15759832e-01, 6.46921456e-01,
          -1.04551435e+00, -4.87240404e-01, -3.66538286e-01,
          4.88879323e-01, -8.13321173e-02, -4.97869849e-02,
          1.61847010e-01, -9.13927034e-02, -1.42488107e-01,
          1.41662568e-01, 2.90793628e-02, 9.24715325e-02, 9.76286177e-03,
          -1.99594744e-03, 1.55271124e-02, -2.36213300e-02,
          -1.58707798e-02 ]
      - [ 2.88425970e+00, 1.81647587e+00, 2.37495303e-01,
          -1.45384774e-01, -2.84758091e+00, 3.99462819e+00,
          1.50732780e+00, 1.21989894e+00, 2.15648770e+00, 1.03574462e-01,
          1.09268439e+00, -6.00624502e-01, -7.52270341e-01,
          7.34671891e-01, 3.77978146e-01, -4.04622167e-01,
          1.30629039e+00, -7.21459091e-02, -2.10125193e-01,
          -9.70666289e-01, -2.77555466e-01, 6.24647379e-01,
          -7.16086179e-02, -1.70410704e-03, 7.07062706e-02,
          -6.41114712e-02, -6.48498582e-03, -3.17521021e-02,
          4.14292933e-03 ]
      - [ -2.23109865e+00, -1.66122711e+00, -1.17837155e+00,
          2.60034204e+00, 9.73162726e-02, 1.59424558e-01,
          -1.21804342e-01, -5.94255269e-01, -2.54517198e-01,
          -2.37154588e-01, 3.05232972e-01, 6.72076568e-02,
          1.16225101e-01, -6.65297091e-01, -7.68743396e-01,
          8.05732787e-01, 3.96347135e-01, -1.71418682e-01,
          2.43980527e-01, 1.26499236e-01, -1.82133708e-02,
          8.67053345e-02, 3.58834229e-02, 4.63200063e-02, 9.31308642e-02,
          -4.26515006e-02, 8.53072014e-03, -3.98956798e-03,
          -1.16463592e-02 ]
      - [ -8.95577967e-01, 7.70810604e-01, -3.14732671e+00,
          -8.18639815e-01, 2.54821658e+00, -2.31144285e+00,
          -2.99890369e-01, -1.78999156e-01, 1.22817314e+00,
          1.24799466e+00, 1.59914780e+00, 3.01590204e-01,
          -9.04716432e-01, 9.81872201e-01, 3.32941800e-01,
          -1.68597567e+00, 3.52890082e-02, 6.76784813e-01,
          1.34175792e-01, 3.15883309e-01, 2.49162037e-02,
          -2.22472310e-01, -6.57178313e-02, 4.70843315e-02,
          -4.11937432e-03, -2.81013064e-02, 1.61953289e-02,
          -4.23908746e-03, -2.32368452e-03 ]
      - [ 1.76281500e+00, 2.74098754e+00, -1.51549327e+00,
          -4.96884167e-01, -2.38263655e+00, 1.23752391e+00,
          1.60992134e+00, 2.05359697e+00, 6.03598237e-01, 1.07414520e+00,
          1.28244102e+00, -5.30235887e-01, -5.60306847e-01,
          -3.51553559e-01, -1.16523400e-01, 7.47760653e-01,
          2.25995824e-01, 5.91462493e-01, -6.32647812e-01,
          -1.01360333e+00, -2.00458214e-01, 1.28774607e+00,
          4.46261503e-02, 4.30147164e-02, 5.01724184e-02,
          -1.80137176e-02, 4.18218300e-02, 5.12598418e-02,
          4.89002988e-02 ]
      - [ -1.63058519e+00, -4.19487089e-01, 1.69118309e+00,
          7.63767540e-01, -5.37117422e-01, 6.18706644e-01,
          -9.25678015e-01, -7.31699347e-01, 2.72025406e-01,
          -1.74668252e+00, -7.37666041e-02, 2.79740363e-01,
          -5.84050357e-01, 6.91502333e-01, -5.14634728e-01,
          -3.95321697e-01, 1.32641107e-01, -3.00831228e-01,
          3.69583890e-02, 9.35367867e-02, 1.13555185e-01, 4.63703722e-02,
          -3.41159925e-02, -4.54857685e-02, -6.20821724e-04,
          -1.79191418e-02, -1.16665009e-02, -6.27645897e-03,
          1.00844949e-02 ]
      - [ -3.23664379e+00, -1.13432169e+00, -7.42145479e-01,
          3.67736840e+00, -4.84026343e-01, 1.67216495e-01,
          5.10700464e-01, -2.17743680e-01, -4.31242794e-01,
          3.07919502e-01, -6.68081343e-01, 9.47656155e-01,
          -1.28111172e+00, -7.42292106e-01, -7.95384049e-01,
          8.03105712e-01, 8.53671789e-01, 4.53695148e-01,
          -2.93002486e-01, 3.31277959e-02, -1.52320668e-01,
          3.20079416e-01, 1.59797035e-02, -7.33625889e-03,
          8.66865069e-02, -3.17829847e-02, -2.82788090e-02,
          -2.48676036e-02, -6.39225319e-02 ]
      - [ 1.19354427e+00, -1.31205547e+00, 3.73678118e-01,
          8.93016696e-01, -9.30197909e-02, 5.16688704e-01,
          -1.03748274e+00, -3.09494399e-02, 1.15489054e+00,
          1.81946501e-01, 6.16604798e-02, -2.37912476e-01,
          9.27095175e-01, 9.90594178e-02, 5.19920826e-01, 1.26232713e-01,
          -3.10351979e-02, 6.73662573e-02, -4.15235639e-01,
          -2.70793617e-01, 6.70758411e-02, -1.10144794e-01,
          3.23793739e-02, 5.17171919e-02, 1.03997961e-02, 1.81896567e-01,
          -1.02615124e-02, -2.56666448e-03, -2.92777171e-04 ]
      - [ -1.73575729e-01, 2.04576182e+00, -3.24256372e+00,
          -3.23393726e+00, 1.45679259e+00, 3.72806221e-01,
          -1.81405663e-01, 4.17546481e-01, 7.81279147e-01,
          5.86972058e-01, -1.97213376e+00, -4.48325098e-01,
          -5.72664976e-01, -3.77124280e-01, -2.52162814e-01,
          4.42917138e-01, -8.09589863e-01, 1.86463371e-01,
          -1.99440956e-01, -3.02183777e-01, -2.76244804e-02,
          -2.49111261e-02, 6.90562427e-02, -1.31116122e-01,
          1.40019059e-01, -3.55757140e-02, -1.72403678e-02,
          -5.33297751e-03, 8.28979479e-04 ]
      - [ 2.03154039e+00, 6.29626513e+00, -1.81461823e+00,
          3.57183409e+00, -1.86293936e+00, 2.41302061e+00,
          1.63306880e+00, 1.44728303e+00, 1.41151641e-02,
          -4.79997277e-01, 6.56558752e-01, -6.50367677e-01,
          -1.18973446e+00, 9.22516584e-02, 1.99053633e+00,
          1.57260776e+00, 1.51462033e-01, -8.06412637e-01,
          -7.50112712e-01, -3.14093977e-01, -5.22965014e-01,
          2.95586705e-01, -8.41689017e-03, -1.46241151e-02,
          -4.10174020e-02, 4.30624485e-02, 4.29264791e-02,
          5.25632873e-02, 5.14170062e-03 ]
      - [ 2.43218660e+00, 7.42133570e+00, -3.21954966e+00,
          4.33151579e+00, -2.03738189e+00, 2.62850785e+00,
          1.26123357e+00, 4.37419452e-02, -6.14469171e-01,
          -8.42027485e-01, 9.41876113e-01, 4.49302316e-01,
          -1.49218857e+00, 6.79383725e-02, 3.06794596e+00,
          2.33417797e+00, 6.00506604e-01, -5.60562074e-01,
          3.16106051e-01, -5.84442854e-01, -1.24431241e+00,
          2.41430283e-01, -4.51230034e-02, -4.76891175e-02,
          -1.26754448e-01, 2.04500426e-02, -2.41077710e-02,
          -1.74605416e-03, 6.04318411e-05 ]
      - [ -1.77138627e+00, -1.47122800e+00, 1.09429210e-01,
          7.11036384e-01, 1.95283473e+00, 1.11121094e+00,
          -6.58763289e-01, 2.06740782e-01, 6.70840323e-01,
          1.30827296e+00, 3.42947006e-01, -2.20436841e-01,
          -9.46484268e-01, 4.77794297e-02, 5.08360229e-02,
          -3.19107533e-01, 1.42342120e-01, -1.69944599e-01,
          1.91837430e-01, 4.92900684e-02, -8.69162306e-02,
          -5.21624126e-02, -2.44698040e-02, 1.33026510e-01,
          -7.53278360e-02, -7.59102702e-02, 1.12233842e-02,
          -1.71814673e-02, 5.70140826e-03 ]
      - [ 4.54406977e+00, -2.55509877e+00, 1.92896694e-01,
          5.45131505e-01, -4.07504886e-01, -2.39728794e-01,
          4.78321940e-01, -5.12401462e-01, 1.16605616e+00,
          -1.79641783e-01, 1.91405803e-01, -1.08040881e+00,
          3.56674612e-01, -3.84723604e-01, 8.15079659e-02,
          -2.58309126e-01, -1.97979540e-01, -1.43302217e-01,
          1.00655615e-01, 1.47573069e-01, 2.37881150e-02,
          -9.80530158e-02, -2.83695851e-03, 4.98284819e-03,
          -1.17347622e-02, -1.56467482e-02, -3.83711830e-02,
          1.79926753e-02, -7.37428386e-03 ]
      - [ -2.23896146e+00, -1.15119612e+00, -1.08332083e-01,
          1.27066195e+00, 8.52210745e-02, 5.56497201e-02, 1.81284443e-01,
          3.48649383e-01, 6.51920080e-01, -2.86094695e-01,
          -1.02113210e-01, -5.33043027e-01, 2.90560097e-01,
          -4.18091297e-01, 1.84265420e-01, -2.55849957e-01,
          -4.71505187e-02, -6.91465894e-03, 6.56781867e-02,
          2.57573393e-03, 4.73896563e-02, -7.20359161e-02,
          -1.28300081e-03, -2.46197861e-02, -5.15884999e-03,
          -3.80279645e-02, -4.09325621e-05, -1.05130868e-02,
          4.13723662e-03 ]
      - [ 1.13616800e+00, 4.39750862e+00, -2.56249499e+00,
          2.46661878e+00, -1.37857163e+00, 1.93697274e+00,
          9.55008745e-01, 2.36108676e-01, -8.59937131e-01,
          2.28235215e-01, 5.24484038e-01, -8.63163173e-01,
          -2.26716995e-01, -2.31843337e-01, 4.22973454e-01,
          1.23124492e+00, 7.31779814e-01, 7.53248870e-01, 4.74633336e-01,
          -6.50469601e-01, -5.63978374e-01, 1.85688823e-01,
          1.75821614e-02, -1.93739217e-02, -1.13251545e-01,
          2.90370360e-02, 1.08198859e-02, 5.04544154e-02, 5.34385396e-03 ]
      - [ -4.56601381e-01, -9.46167588e-01, -1.22710252e+00,
          -4.38098639e-01, 1.84011662e+00, 8.36640418e-01,
          1.36361837e-01, 1.02013206e+00, -2.62840688e-01,
          6.12569034e-01, -9.44010258e-01, -6.46575959e-03,
          -1.16943991e+00, -3.08320194e-01, -1.05408974e-01,
          -2.16457441e-01, -7.09574968e-02, -4.66901958e-02,
          -8.69208723e-02, -4.64655221e-01, -6.90458491e-02,
          -1.91313595e-01, 1.93783678e-02, 5.65026049e-03,
          -1.84008537e-03, 1.15814842e-02, 9.18813515e-04,
          -8.74514692e-03, 6.82547782e-03 ]
      - [ 1.33568072e+00, -1.61075234e+00, -2.55442232e-01,
          1.27658558e+00, 3.61441597e-02, -4.24622387e-01,
          -2.69502521e-01, 6.98914170e-01, -8.45495999e-01,
          -3.19017380e-01, -2.11562291e-01, -5.74074447e-01,
          6.10987365e-01, 7.46920943e-01, 3.47304195e-01, 3.84826481e-01,
          2.80544609e-01, -2.57141858e-01, -3.77149917e-02,
          -3.26746851e-01, -8.74102395e-03, -9.77038592e-02,
          4.21658978e-02, 7.61265159e-02, 3.57320309e-02, 2.35476717e-01,
          -2.26361118e-02, -1.76910101e-03, 1.01526221e-03 ]
      - [ -1.47110891e+00, 3.91253996e+00, 5.06938994e-01,
          -1.01386130e+00, 2.50637699e-02, -1.28685462e+00,
          1.23900071e-01, -1.21877491e+00, -3.56114030e-01,
          1.15023780e+00, 1.66221404e+00, 4.70623225e-01,
          -1.37674928e-01, 1.38153195e+00, -2.16196075e-01,
          -8.13662708e-02, -3.46418887e-01, 1.45233229e-01,
          -2.39564985e-01, -5.43383211e-02, -4.73704308e-01,
          1.09597906e-01, -3.71294133e-02, -1.83289759e-02,
          -2.95865797e-02, 4.31243032e-02, 2.86497548e-02,
          2.75093913e-02, 5.48185455e-03 ]
      - [ -2.27214074e+00, 9.59331751e-01, 1.67067930e-01,
          5.31244278e-01, 1.29854888e-01, 1.09146345e+00, 2.19190195e-02,
          -1.85668588e+00, -6.81843042e-01, -7.69551933e-01,
          -2.87755132e-01, 8.61681759e-01, 8.19308907e-02,
          -4.96033996e-01, -7.27515295e-02, -1.62752345e-02,
          1.71753034e-01, 4.85657156e-01, -9.10553858e-02,
          6.40817825e-03, 1.18527442e-01, 7.35330805e-02, 9.01957974e-03,
          1.95673946e-02, 8.13208967e-02, -5.63354455e-02,
          3.89419645e-02, -2.64098472e-03, -6.74436521e-03 ]
      - [ -1.44712627e+00, 3.82030439e+00, 1.25342846e+00,
          -2.63386279e-01, -2.29595274e-01, 6.14017881e-02,
          8.35596696e-02, -1.27576578e+00, -5.24477661e-01,
          1.57341516e+00, 1.02476766e-02, 1.89318269e-01,
          -3.26291442e-01, 7.40730166e-01, 6.85499469e-03,
          -4.39689606e-01, 1.18190713e-01, -2.29955018e-01,
          2.90198505e-01, 3.75443310e-01, 2.56640315e-01,
          -1.81275494e-02, -6.54477328e-02, 2.10925145e-03,
          -2.46012174e-02, -5.89020643e-03, -7.94716924e-03,
          1.54969068e-02, 3.55941360e-03 ]
      - [ -2.17000055e+00, -1.81882918e-01, -2.06834149e+00,
          2.21590686e+00, -1.26036096e+00, 6.40148580e-01,
          7.84958184e-01, 1.74668115e-02, -3.17027807e-01,
          5.91252148e-01, -1.32861567e+00, 2.33859330e-01,
          -8.94418955e-01, -3.21461290e-01, -3.60984683e-01,
          1.24422157e+00, 2.18365937e-01, -5.91402292e-01,
          5.47296032e-02, -3.76404934e-02, -2.52495170e-01,
          2.70801008e-01, 1.66640580e-02, -4.01624739e-02,
          -9.88545939e-02, 3.80227081e-02, -7.04701170e-02,
          1.66504283e-03, -1.28376726e-02 ]
      - [ -1.45884895e+00, 1.54875541e+00, -1.32277384e-01,
          -5.08107841e-01, -8.01069915e-01, 6.76551819e-01,
          -1.27705348e+00, -1.08694232e+00, 2.13021025e-01,
          -7.02219367e-01, -1.14439380e+00, 7.78313205e-02,
          1.77253932e-01, 3.17210138e-01, -3.92267145e-02,
          -9.02474523e-02, 1.11510471e-01, 1.16900599e+00,
          2.52903759e-01, 5.64422756e-02, 4.70972881e-02,
          -5.02765067e-02, 9.37012956e-03, -4.05420363e-03,
          -7.20444918e-02, 1.49502028e-02, -1.95156578e-02,
          4.54686349e-03, 2.62756506e-03 ]
      - [ 2.31698561e+00, -9.54042494e-01, 9.55406249e-01,
          2.17589355e+00, -1.00017393e+00, -4.84640896e-02,
          2.88652718e-01, 2.43918538e-01, -1.15894520e+00,
          1.58147645e+00, -1.87146161e-02, 2.68088311e-01,
          -1.25680709e+00, 2.12367272e+00, 1.06312990e+00,
          -4.05979007e-02, 7.84484804e-01, -5.12829125e-01,
          -7.88443685e-01, 7.77170360e-01, 3.74350071e-01,
          -4.17574011e-02, -6.71804249e-02, 3.37005630e-02,
          5.76631501e-02, 8.88411328e-02, -3.67905088e-02,
          9.27639473e-03, 6.73578912e-03 ]
      - [ -3.10142040e-01, -5.32434583e-01, -1.03812742e+00,
          -2.55966663e-01, -1.93270183e+00, 2.06273723e+00,
          1.10964000e+00, -9.91234601e-01, 1.35868156e+00,
          9.66503739e-01, -2.29278255e+00, 9.84845996e-01,
          -7.63425469e-01, 5.75043380e-01, 4.75084126e-01,
          -5.84336817e-01, -1.89784527e-01, -1.28641069e-01,
          2.08700728e-02, -3.33094560e-02, -1.03415012e-01,
          -1.29862577e-01, -2.63408329e-02, -3.63902152e-02,
          2.78450977e-02, -8.70096497e-03, -2.35381722e-02,
          1.02813030e-03, 1.16680097e-02 ]
      - [ -1.45056236e+00, 2.10056090e+00, 1.31252691e-01,
          3.41685200e+00, -3.50951046e-01, -5.66795945e-01,
          2.14631289e-01, 3.55850905e-01, 7.53305703e-02,
          -7.46870399e-01, 4.88472462e-01, 3.99151981e-01,
          -1.32177401e+00, -4.31353599e-01, 1.51453400e+00,
          4.20304656e-01, -1.30326271e-01, -3.42254221e-01,
          3.60599041e-01, 8.74355361e-02, -5.74158669e-01,
          3.40639837e-02, -2.74915360e-02, -3.56829353e-02,
          3.12499963e-02, 4.15218621e-02, -5.16099064e-03,
          -1.09774042e-02, 1.02591189e-02 ]
      - [ -2.08654952e+00, -5.53424358e-01, -2.48041302e-01,
          5.15665188e-02, 1.17917240e-01, -8.43792677e-01,
          6.65932834e-01, 8.72485995e-01, 6.04726076e-01, 1.29395950e+00,
          5.47623694e-01, -8.55225604e-03, 4.52150255e-01,
          -2.05843851e-01, 1.56355202e-01, -6.70286119e-02,
          -8.24000910e-02, -5.62228560e-01, 1.66078925e-01,
          1.27431825e-01, -1.88398212e-02, -1.64792091e-01,
          -1.82113294e-02, 4.74817585e-03, 2.60760467e-02,
          -3.34694721e-02, 7.75160408e-03, -8.30455776e-03,
          -2.61772308e-03 ]
      - [ 5.28980637e+00, -1.73902619e+00, 1.48286045e+00,
          -6.07777715e-01, 1.10056236e-01, -1.48347899e-01,
          3.29588354e-01, -1.09258831e+00, 8.88921261e-01,
          9.68246534e-02, 4.69554037e-01, 7.72382557e-01, 6.48913503e-01,
          -1.18982470e+00, 3.22478749e-02, -6.20426200e-02,
          1.16651371e-01, -3.77314873e-02, -7.47989714e-02,
          1.47881374e-01, 8.40903446e-02, 5.08858748e-02, 5.49324825e-02,
          -4.13124159e-04, -4.51965667e-02, 1.04240691e-02,
          -2.51346435e-02, 2.58059166e-02, 3.61631485e-03 ]
      - [ -7.06755221e-01, 1.17072427e+00, 2.73886353e-01,
          2.56239629e+00, -1.80064869e+00, -5.84917009e-01,
          -1.35106480e+00, 2.07465243e+00, 3.47773015e-01,
          3.38175297e-01, 2.70692341e-04, -7.73029076e-03,
          -1.38669717e+00, -4.30006534e-01, 2.05893493e+00,
          7.47377694e-01, -6.44085050e-01, 4.73008864e-02,
          7.81837523e-01, -5.29032290e-01, -1.31811047e+00,
          -2.97509357e-02, -2.77316687e-03, -6.33644238e-02,
          4.97374572e-02, 7.80191366e-03, 6.25775475e-03,
          -2.32771318e-03, -3.01267835e-03 ]
      - [ -2.05802751e+00, -1.19901133e+00, 3.85200173e-01,
          8.30009699e-01, -2.88467169e-01, 5.77855408e-01,
          -5.58333457e-01, -1.29789758e+00, -1.78737640e-01,
          1.25859129e+00, -7.63818622e-02, 7.91434288e-01,
          2.31210422e-02, 2.52733260e-01, -1.81128219e-01,
          -5.39101601e-01, 3.97759117e-02, -3.64517480e-01,
          4.61888760e-01, -9.60231423e-02, -3.18834223e-02,
          3.86326872e-02, -4.27915193e-02, 1.64202310e-03,
          7.73634091e-02, -4.36193570e-02, 8.24089721e-03,
          -1.65997539e-03, 8.11902620e-03 ]
      - [ 1.74555016e+00, 2.31272191e-01, 5.28722763e-01,
          -1.61903369e+00, -9.88407314e-01, 4.60413307e-01,
          -1.47821057e+00, -2.11978412e+00, -3.91435623e-01,
          1.77492261e-01, 2.16976121e-01, 3.23460042e-01, 2.88642853e-01,
          1.09217957e-01, 2.48037174e-01, 7.75014311e-02,
          -1.51936933e-01, 5.22572637e-01, 3.55148911e-01,
          -3.20559442e-01, -1.18928879e-01, -1.61660478e-01,
          2.39018202e-02, 2.03232337e-02, -1.96869373e-02,
          1.20850518e-01, -1.57531481e-02, 6.28457638e-03,
          8.76038987e-03 ]
      - [ 5.66722250e+00, -3.07439494e+00, 1.71324149e-01,
          9.62425292e-01, -7.48793483e-01, -5.14655054e-01,
          1.09226942e+00, 5.97840905e-01, -1.17462802e+00,
          3.81134897e-01, -2.34071821e-01, -1.66051816e-02,
          -2.26132870e-01, 8.51371825e-01, -1.88569367e-01,
          2.78909177e-01, -1.49352014e-01, 1.45973593e-01,
          5.78121170e-02, -4.63446528e-02, -5.15414365e-02,
          -3.82747352e-02, -1.61502347e-03, -4.70380299e-02,
          -2.12904494e-02, -4.67124321e-02, 6.36009779e-03,
          -2.24491339e-02, 3.57783912e-03 ]
      - [ -1.01087070e+00, -7.57302701e-01, -1.87352717e+00,
          -6.27455652e-01, 2.53540397e+00, -8.07365239e-01,
          3.33124876e-01, 1.48169053e+00, 1.37006605e+00,
          -1.06215990e+00, 4.89077419e-01, -3.14106405e-01,
          -8.43873858e-01, 3.67941648e-01, 2.67947882e-01,
          -4.09274220e-01, -1.63062252e-02, 9.62585285e-02,
          1.29926011e-01, 8.02397057e-02, -7.45258033e-02,
          -1.40391752e-01, 9.29298752e-04, 9.28289890e-02,
          -2.16450430e-02, 1.26801543e-02, 1.99361220e-02,
          -9.62614827e-03, -7.34950323e-03 ]
      - [ 9.81963500e-02, 1.20730448e+00, -2.58604980e+00,
          -8.06608677e-01, -1.42395353e+00, -8.04986000e-01,
          -1.98823309e+00, -6.10429406e-01, -6.30219400e-01,
          -3.76252741e-01, 3.34648862e-02, -8.23465347e-01,
          5.57620764e-01, -4.93903995e-01, -4.32891876e-01,
          3.27902913e-01, -2.36963504e-03, 1.09818794e-01,
          9.75479111e-02, -3.36755700e-02, 6.57203868e-02,
          -2.93616056e-01, 5.43976612e-02, 5.94366714e-02,
          -2.80494075e-02, -1.86791234e-02, -7.49284029e-03,
          3.69629194e-03, -2.80569843e-03 ]
      - [ 1.58513427e+00, 1.54360175e+00, -5.28953457e+00,
          -1.90550697e+00, -6.15551472e-01, 4.17771769e+00,
          2.77643442e-01, 7.74442136e-01, -9.12914634e-01,
          -2.20749927e+00, 1.31924605e+00, -7.05416083e-01,
          -9.07450080e-01, 1.92254871e-01, 2.31606826e-01,
          -4.80293304e-01, 1.49239492e+00, -9.63527024e-01,
          -3.69960457e-01, -9.94029164e-01, -2.14923441e-01,
          -1.64012462e-02, -9.65027288e-02, 9.19021666e-03,
          -1.11649387e-01, -5.19141518e-02, 2.16626320e-02,
          -1.27047226e-02, -4.06714343e-03 ]
      - [ 6.34771013e+00, -2.90568995e+00, -4.06808853e-01,
          3.63040477e-01, 1.52313018e+00, -1.64871648e-01,
          6.49455070e-01, 1.28529668e+00, -8.77760231e-01,
          3.39006126e-01, -1.26075000e-01, -4.34484184e-01,
          -9.10159230e-01, 3.32646847e-01, 2.16044456e-01,
          3.15967351e-01, -5.14033496e-01, -1.17206901e-01,
          -2.01648176e-02, -7.58405682e-03, -6.72635213e-02,
          -5.65892123e-02, 4.48797122e-02, 1.09072566e-01,
          -1.10655501e-01, -5.35627939e-02, 2.24826671e-02,
          -2.70948689e-02, -4.87571070e-03 ]
      - [ -2.39794302e+00, 1.69893336e+00, -1.79909468e-01,
          -5.17012775e-01, 1.56498253e-02, -4.86714929e-01,
          1.17291987e+00, -4.38639969e-01, -2.84679651e-01,
          3.95550102e-01, -1.18196201e+00, -2.75816679e-01,
          -3.53288576e-02, -4.64072615e-01, 5.67296557e-02,
          9.75116193e-02, -1.46203741e-01, -9.19537395e-02,
          2.99822967e-02, 3.56010348e-02, -2.10176483e-01,
          -1.60525799e-01, 2.06670929e-02, 2.85421429e-05,
          2.65283510e-03, 2.16011293e-02, -7.26812612e-03,
          -5.24715567e-03, 2.05583707e-03 ]
      - [ 5.08348846e+00, -2.09453607e+00, 6.25021935e-01,
          3.94737780e-01, 1.53893697e+00, 1.21946871e+00,
          -1.87035397e-01, -1.28387225e+00, 9.30058837e-01,
          2.47845128e-01, 2.56502688e-01, 2.51961928e-02,
          -1.04609430e+00, -1.66661501e-01, -5.04604936e-01,
          -1.26688436e-01, -6.14848733e-01, -1.66615397e-02,
          9.68235284e-02, -1.78063855e-01, -1.62076000e-02,
          -1.18502118e-02, 1.04115896e-01, 9.33619738e-02,
          -2.44535003e-02, -3.30525078e-02, 2.13157404e-02,
          1.65369716e-02, 7.00437604e-03 ]
      - [ -2.56713223e+00, -1.09009039e+00, 1.40562153e+00,
          1.17012203e+00, -7.87059486e-01, -6.88513741e-03,
          -1.52311206e+00, -1.93255794e+00, 4.65793461e-01,
          -3.72389793e-01, -6.81272373e-02, -1.83750838e-01,
          -1.11738718e+00, 7.87544072e-01, 1.54552594e-01,
          -4.43161547e-01, 1.38225675e-01, -2.34324381e-01,
          2.71594673e-01, 4.59675025e-03, 2.75224298e-02, 2.29133382e-01,
          -6.18918687e-02, -7.20597338e-03, -1.25527121e-02,
          2.02206641e-01, -5.70273660e-02, -1.41412308e-02,
          -5.10483701e-03 ]
      - [ 1.78523898e+00, -2.04832458e+00, 2.21102208e-01,
          1.93531424e-01, 1.27046740e+00, 7.11074889e-01,
          -6.42495990e-01, -3.86904597e-01, 7.99493134e-01,
          8.92619602e-03, 2.26124674e-01, -1.89776272e-01,
          -1.17539775e+00, -4.87373829e-01, -2.95767844e-01,
          -2.48632818e-01, -1.42817060e-02, -4.33216654e-02,
          -1.99196756e-01, -3.32971245e-01, 1.17788706e-02,
          -8.38716105e-02, -3.04868445e-05, 1.60180971e-01,
          -4.97346967e-02, 4.29134741e-02, 4.10778075e-03,
          7.08912080e-03, 7.91172497e-03 ]
      - [ -6.92971826e-01, -1.03689241e+00, 3.56554300e-01,
          1.31446290e+00, 3.42598617e-01, 7.79636949e-02,
          -2.71888882e-01, 5.17807186e-01, -8.90086889e-01,
          -5.87887883e-01, -9.35231745e-02, 1.76202521e-01,
          5.33824563e-01, 4.78580952e-01, 4.82473612e-01,
          -9.71935019e-02, 1.56328872e-01, -1.83005705e-01,
          -1.47390783e-01, -2.10503325e-01, 3.43725115e-01,
          -1.98367587e-03, -3.78935807e-03, 3.94996777e-02,
          3.38598676e-02, 1.31057262e-01, 1.77600794e-03,
          -4.77296114e-03, 8.72160401e-03 ]
      - [ -2.39756799e+00, -8.99860620e-01, -2.00816560e+00,
          3.93865675e-01, 2.34540558e+00, -2.25800306e-01,
          -1.44530147e-01, -3.51229340e-01, 9.64775980e-02,
          -1.12772942e+00, 2.86820620e-01, 3.89465362e-01,
          -9.43756878e-01, 1.24858640e-01, -1.06129922e-01,
          -3.02610815e-01, -2.32548177e-01, -1.91344902e-01,
          1.61062002e-01, 7.66617188e-04, -6.49907961e-02,
          1.66884176e-02, 1.89811885e-02, 2.15551704e-01,
          -1.77797005e-02, 1.54971138e-01, 2.29628012e-02,
          -1.42077059e-02, 5.80950873e-03 ]
      - [ 3.72743034e+00, -1.38337338e+00, 7.39893973e-01,
          4.43047047e-01, 3.98708403e-01, -1.48975790e-01,
          6.96976304e-01, -3.03881377e-01, -1.70062947e+00,
          -1.91283286e-01, 8.52208436e-02, 1.29711950e+00,
          5.19303799e-01, -3.97098839e-01, -1.86330192e-02,
          3.81080568e-01, -7.58318156e-02, 5.04881561e-01,
          -2.57615596e-01, -7.75092915e-02, 2.27896124e-01,
          4.08648476e-02, 8.53610784e-03, 8.15473795e-02, 2.12389261e-01,
          -8.77107158e-02, 8.64977837e-02, 6.78999946e-02,
          -9.91959311e-03 ]
      - [ -1.27088118e+00, 3.08274317e+00, 1.39831364e+00,
          -1.86926425e+00, -8.69433105e-01, 1.46576405e+00,
          1.09920895e+00, -8.16812575e-01, 1.08306777e+00,
          -3.49963099e-01, -1.48034525e+00, 1.67277217e-01,
          -3.84558439e-01, 4.15340185e-01, -9.14901495e-02,
          2.21706986e-01, -3.10872197e-01, 1.71202067e-02,
          -9.26942006e-03, 1.00781269e-01, -3.41153860e-01,
          -2.85429098e-02, 4.49050916e-03, -2.92118862e-02,
          7.05139060e-03, -4.71989922e-02, 7.40320235e-03,
          8.52074567e-03, 1.07509433e-03 ]
      - [ -6.77419543e-01, -7.39882231e-01, 4.53477979e-01,
          1.26524987e-02, 1.51394546e+00, 2.11213827e+00,
          -2.80510807e+00, 1.40199578e+00, 1.46016467e+00,
          1.32791960e+00, -1.68592021e-01, 1.40361154e+00,
          -4.15934324e-01, 5.55731475e-01, -3.61577362e-01,
          -1.37683796e-02, -3.16790402e-01, -2.71145761e-01,
          2.31990948e-01, 2.36539900e-01, 1.11378049e-02,
          -7.30138123e-02, 2.81558209e-03, 3.60591486e-02,
          -5.63360229e-02, -5.88738061e-02, 4.02291678e-03,
          -3.89049808e-03, 6.86739478e-03 ]
      - [ 3.77506828e+00, -1.18681443e+00, 1.99228299e+00,
          -1.00639749e+00, -7.53573403e-02, 1.20699711e-01,
          2.55401134e-01, -5.21447182e-01, 1.00441539e+00,
          -8.47615898e-01, 4.16328132e-01, 2.30368242e-01,
          4.04843390e-01, -4.88219976e-01, 4.42926697e-02,
          7.81591088e-02, 1.22904852e-01, 2.30628416e-01, 3.05823777e-02,
          2.10159153e-01, 1.63449690e-01, -4.72769737e-02,
          -8.82139802e-02, -4.00350383e-03, -5.02402000e-02,
          -7.28874886e-03, -4.73742001e-02, 2.38810685e-02,
          -2.53250473e-03 ]
      - [ 8.39440823e-01, 4.87299681e-01, 1.26537097e+00,
          -2.26757979e+00, -1.39393580e+00, 1.27853739e+00,
          -2.55749321e+00, -1.42540753e+00, 1.14941633e+00,
          -8.90563071e-01, -6.06327415e-01, 2.98699141e-01,
          5.32783508e-01, 1.57912409e+00, -3.85746539e-01,
          -4.24542129e-01, 8.29160884e-02, 1.42772749e-01,
          -9.60685778e-03, 2.22703423e-02, 2.11458772e-01,
          -1.02602743e-01, -1.61934737e-02, 5.24585135e-02,
          -1.53306425e-02, 1.22689135e-01, -2.28266716e-02,
          1.80262676e-03, -7.31264614e-03 ]
      - [ 5.44784927e+00, -9.78024483e-01, 1.30226687e-02,
          -9.25138772e-01, -5.34006894e-01, -1.19589531e+00,
          3.95528644e-01, 4.28372711e-01, -1.23591113e+00,
          -4.79198903e-01, -1.19809859e-01, -6.10491395e-01,
          4.76444006e-01, -1.59268990e-01, -1.24837592e-01,
          -1.87105179e-01, -2.52162933e-01, 5.19127548e-01,
          -1.92833483e-01, 1.32296920e-01, 1.96460754e-01,
          -1.41730994e-01, -2.36146748e-02, 1.60636008e-02,
          -3.85034978e-02, -2.09290721e-02, -4.23078127e-02,
          2.01088898e-02, -1.38244275e-02 ]
      - [ 2.16278151e-01, 4.25131321e+00, 1.34112263e+00,
          -2.71438503e+00, -7.22830296e-01, 8.49964023e-02,
          1.73224378e+00, 2.09169447e-01, 3.01257581e-01, 1.95644343e+00,
          -2.74985194e+00, 1.70172215e+00, -4.05772835e-01,
          6.58506751e-01, 7.64328957e-01, -2.34024689e-01,
          3.57648015e-01, -1.86254710e-01, -1.33204132e-01,
          1.02148986e+00, 1.46016628e-02, -1.18891843e-01,
          -3.12392730e-02, 4.89168353e-02, 4.89005148e-02,
          -8.67435709e-02, -3.06764226e-02, -6.40710164e-03,
          -5.23691112e-03 ]
      - [ -2.47941804e+00, 9.10102606e-01, -1.57415307e+00,
          -6.16417229e-01, -4.40560490e-01, 6.50631428e-01,
          7.84171343e-01, -5.02845883e-01, -5.35873294e-01,
          4.52135772e-01, -2.11285925e+00, 5.86574793e-01,
          4.18285847e-01, -2.50859976e-01, 8.35362598e-02,
          5.90011477e-02, -5.66098392e-01, 3.04230124e-01,
          -8.99159163e-02, 8.39857832e-02, 1.21837460e-01,
          -6.23742938e-02, 4.10499498e-02, -1.23309717e-02,
          -6.13954924e-02, 9.75844916e-03, -2.48724744e-02,
          -7.59708602e-03, 2.61877594e-03 ]
      - [ -1.39980209e+00, -4.81860340e-01, -2.17421794e+00,
          -5.98610222e-01, -2.18998089e-01, -1.98059452e+00,
          1.68410742e+00, 1.03129256e+00, 2.11015844e+00,
          -1.10884476e+00, 7.16412589e-02, 2.77195424e-01,
          1.41973626e-02, 9.44678903e-01, 1.89431131e-01, 5.64968102e-02,
          -6.41050518e-01, -2.20546916e-01, 1.11588158e-01,
          -2.67920107e-01, -4.16424498e-02, -7.45738000e-02,
          2.51363795e-02, 2.94391299e-03, 5.11832461e-02,
          -7.35356705e-04, 8.95186048e-03, -1.10494252e-02,
          -9.25928541e-03 ]
      - [ 6.29761505e+00, -1.70753992e+00, -1.11004092e-01,
          1.57682860e+00, -7.84382999e-01, -3.34733605e-01,
          8.98608685e-01, -1.22255512e-01, -1.68314469e+00,
          4.00894940e-01, -2.65179992e-01, 4.38860506e-01,
          -3.23251218e-01, 5.00699282e-01, -7.92137802e-01,
          4.49850202e-01, -2.86023647e-01, -8.59814063e-02,
          1.04188547e-01, -4.09013405e-02, -2.46909987e-02,
          -3.07549909e-02, -4.80043655e-03, -9.67022311e-03,
          3.56611200e-02, -1.75967384e-02, 3.04436386e-02,
          -1.76465064e-02, 1.02771418e-02 ]
      - [ 7.68052101e+00, 1.17459965e+00, 3.00195670e+00,
          -1.89094841e+00, 7.70412540e+00, -1.86366882e+01,
          -9.96935272e+00, -4.56262684e+00, 1.28150761e+00,
          1.60520613e+00, -1.22369976e+01, -2.06049109e+00,
          -1.31064475e-01, 1.60317552e+00, 1.17208540e+00,
          7.07974792e-01, 2.65996242e+00, -6.67494059e-01,
          -2.62836981e+00, -4.94265413e+00, -1.57172069e-01,
          6.63017511e-01, -5.81147969e-01, -1.97209537e-01,
          6.31341636e-02, -4.65921968e-01, 1.57548264e-01,
          -5.48502743e-01, 1.39118207e-03 ]
      - [ 4.52336550e+00, -1.61867774e+00, 1.01130140e+00,
          -9.38555300e-02, 3.14124012e+00, 1.41120446e+00,
          -1.13683619e-01, -3.31749588e-01, 9.66347516e-01,
          -6.50077879e-01, 2.94623911e-01, 1.16421960e-01,
          -1.86034337e-01, -1.61987618e-01, 2.10969657e-01,
          3.59870911e-01, -1.45638168e-01, 2.49460861e-01,
          -2.73191072e-02, 1.46341175e-01, 3.18824574e-02,
          3.12063564e-02, -8.11421797e-02, -3.37191895e-02,
          1.47649031e-02, -4.22513783e-02, -2.64408048e-02,
          2.74892729e-02, 5.86313661e-03 ]
      - [ -7.31340170e-01, -1.52313542e+00, -2.01883018e-01,
          1.43754351e+00, -3.90323043e-01, 6.32338107e-01,
          -8.25775862e-01, 1.80934876e-01, 9.88821328e-01,
          1.76406884e+00, 2.45575272e-02, -8.71535540e-01,
          7.37253845e-01, 1.04406750e+00, 4.39022809e-01,
          -9.00499344e-01, -5.67312576e-02, -1.10928565e-01,
          1.38443932e-01, 2.40636021e-02, 7.02013075e-03,
          -9.51486640e-03, -4.07783277e-02, 5.94109371e-02,
          4.65550534e-02, 1.39436349e-01, -1.02217626e-02,
          2.45304406e-03, -6.29009213e-03 ]
      - [ 3.16265762e-01, 4.19937849e+00, 1.30130541e+00, 7.03597441e-02,
          -1.23996687e+00, 4.06777412e-02, -1.65997863e+00,
          -8.08121502e-01, -1.45891517e-01, 2.50933319e-02,
          5.63079536e-01, -5.23130000e-01, -7.09305406e-01,
          -6.86433539e-02, 6.87293947e-01, 3.99098694e-01,
          -4.11786467e-01, 1.79619752e-02, -3.41258049e-01,
          3.21951836e-01, 1.49305770e-02, -1.14019684e-01,
          -4.51624719e-03, 9.89185553e-03, 8.78540985e-03,
          -1.39689734e-02, 8.21326487e-03, 7.01671373e-03,
          -2.29693786e-03 ]
      - [ -2.27338862e+00, -1.12185299e+00, 1.00909388e+00,
          9.91374254e-01, -1.42823446e+00, -5.77260494e-01,
          9.24982607e-01, 1.96300256e+00, 6.24171436e-01, 2.84267932e-01,
          -1.10840514e-01, -7.77586341e-01, -1.69996822e+00,
          -7.40952929e-03, 1.27492264e-01, 9.72939506e-02,
          6.72777355e-01, 4.48805511e-01, 6.62032604e-01,
          -2.44524226e-01, 1.68238282e-01, 1.38626136e-02,
          -1.90304797e-02, -5.88904843e-02, 6.69832006e-02,
          -7.50234798e-02, 1.08894762e-02, 1.02497665e-02,
          -2.15133675e-03 ]
      - [ -9.75441039e-01, -1.42075825e+00, -3.73514801e-01,
          1.42598128e+00, -3.73339504e-01, 3.96828651e-01,
          -8.11068833e-01, 4.22526270e-01, 1.06795835e+00,
          6.69575214e-01, 1.28212556e-01, -1.02214396e+00,
          6.54496849e-01, 9.56145599e-02, 2.22125083e-01,
          -1.66633531e-01, -1.28719822e-01, -7.54582584e-02,
          -4.52575125e-02, -2.58166641e-01, -2.42233276e-03,
          -8.12282786e-02, 1.34633631e-02, 3.69293913e-02,
          2.79629007e-02, 1.22375183e-01, -3.23295617e-03,
          -4.76714456e-03, -5.24316821e-03 ]
      - [ -1.14813471e+00, -6.42210364e-01, -3.47394377e-01,
          1.88394296e+00, -2.65190750e-01, -1.68684348e-01,
          -3.77231210e-01, 1.13474035e+00, -2.83462852e-01,
          6.97151840e-01, 1.42303884e-01, -6.15077972e-01,
          2.18255430e-01, 3.35565582e-02, 3.25534403e-01, 8.86431113e-02,
          -3.52960937e-02, -4.52654630e-01, -1.03812397e+00,
          1.91568986e-01, 4.71510649e-01, -9.39284712e-02,
          1.16257491e-02, 2.82748640e-02, 9.50060226e-03, 8.53821561e-02,
          -4.25035181e-03, -7.61146285e-03, -2.76120636e-03 ]
      - [ 2.41759968e+00, 1.88282835e+00, -6.50783110e+00,
          -2.30184531e+00, 8.39383841e-01, -8.42037857e-01,
          1.53470844e-01, 3.22204024e-01, 1.37563896e+00, 1.33612096e+00,
          7.75500894e-01, 3.34514380e-01, -4.25179601e-01,
          1.23919654e+00, 2.56492227e-01, -2.17738971e-02,
          8.70416701e-01, -9.75191534e-01, 3.84107381e-01,
          4.73846406e-01, -1.59313992e-01, 8.50543007e-02,
          -5.98304085e-02, 1.62584543e-01, 3.90230753e-02,
          -3.17683555e-02, -4.00006361e-02, -1.05155353e-02,
          -7.30147492e-03 ]
      - [ -2.22062397e+00, -8.26878071e-01, -5.45485616e-01,
          1.91627920e+00, -4.68679339e-01, 6.68939576e-02,
          2.51676977e-01, 6.61833167e-01, 6.11712337e-01,
          -8.46221447e-01, -1.34435087e-01, -4.61626887e-01,
          -3.83391947e-01, -8.75797495e-03, -9.24236104e-02,
          1.34460822e-01, 3.57539020e-02, -2.55183190e-01,
          -2.12101460e-01, 1.60331890e-01, 2.76112705e-01,
          2.86769681e-02, -8.89600313e-04, -3.16054597e-02,
          -2.88400222e-02, -9.97326709e-03, -1.62089448e-02,
          -5.07977651e-03, 4.77022331e-05 ]
      - [ 3.90588474e+00, -2.18813491e+00, -1.25172704e-01,
          9.66044664e-01, 3.77587602e-02, -1.24427330e+00,
          1.09498346e+00, 6.99113667e-01, -6.80285513e-01,
          -4.14532460e-02, 2.29396388e-01, -3.88866216e-01,
          2.27435544e-01, -9.64840651e-01, 2.78678447e-01,
          2.42560338e-02, 2.78080344e-01, 1.02950245e-01, 4.18265015e-02,
          2.33153477e-01, -3.84353995e-02, -6.88313395e-02,
          -2.73340642e-02, 2.11767647e-02, -6.30567688e-03,
          1.62953362e-02, -4.08243500e-02, 2.52573621e-02,
          2.13435804e-03 ]
      - [ -8.31212401e-01, 1.96510136e+00, -3.42555270e-02,
          -5.25294244e-01, -1.23707008e+00, 5.17022252e-01,
          -1.94649541e+00, -2.91828930e-01, -1.24518543e-01,
          1.19106901e+00, -1.07522212e-01, 6.65903568e-01,
          2.44864404e-01, 2.34730437e-01, 2.06455052e-01,
          -2.75737286e-01, -9.16684195e-02, 1.97763182e-02,
          -2.23824173e-01, 5.49750984e-01, 4.23372060e-01,
          -1.72310516e-01, -3.30892615e-02, 2.91484986e-02,
          -3.15767899e-02, -1.07403379e-02, -7.64104957e-03,
          3.80705367e-03, 1.22564728e-03 ]
      - [ -8.06920171e-01, -1.13353121e+00, -6.93978906e-01,
          1.42439830e+00, -3.35005634e-02, -3.69643211e-01,
          -4.74460423e-01, 1.30712628e+00, -1.75729915e-01,
          3.52632314e-01, -4.73593511e-02, -1.00696397e+00,
          8.24489415e-01, 6.15772605e-02, 5.28973341e-01,
          -1.81154937e-01, -2.87950546e-01, -2.42961302e-01,
          -3.43945086e-01, -2.65309989e-01, 6.18717149e-02,
          -1.12679712e-01, 1.48692532e-02, 3.65216359e-02,
          2.80819517e-02, 8.55794102e-02, 3.48179927e-03,
          -7.25228991e-03, -6.52617449e-03 ]
      - [ -4.44000632e-01, 2.65743077e-01, 1.29756439e+00,
          -8.95247638e-01, 1.77875787e-01, -4.18798685e-01,
          -8.71798158e-01, -5.62007487e-01, 3.90589774e-01,
          -9.44817886e-02, 2.20537916e-01, -1.26466453e-01,
          6.36700332e-01, -5.69405079e-01, -1.74492642e-01,
          3.65410186e-02, 4.22564834e-01, 7.60858119e-01,
          -8.98724347e-02, 7.55808130e-02, 1.74729168e-01,
          -2.34317303e-01, -1.86131969e-02, 1.23910196e-02,
          -2.58333068e-02, -1.71935111e-02, -6.52988255e-03,
          1.15050025e-04, 2.59428564e-03 ]
      - [ -1.68305326e+00, 6.46988004e-02, -2.57470226e+00,
          6.76067293e-01, -9.80855942e-01, 8.91207814e-01,
          -7.61356771e-01, -1.86142397e+00, -3.53654809e-02,
          7.19968081e-02, -2.00289845e+00, -2.78805226e-01,
          4.31765467e-01, -8.68649706e-02, 1.01246929e+00,
          -2.12523103e+00, -1.54392564e+00, 6.80833995e-01,
          -1.89276174e-01, -1.73463419e-01, 1.39256909e-01,
          -7.76347518e-03, 2.63616219e-02, -2.49336641e-02,
          -2.53483076e-02, 3.73064540e-02, -7.91979209e-03,
          -1.05363531e-02, 2.81565031e-03 ]
      - [ -7.56391764e-01, 5.90987742e-01, 2.52526402e-01,
          1.08453190e+00, -9.12798047e-01, -2.78880335e-02,
          -1.87602863e-01, 5.08011103e-01, 9.96000946e-01,
          2.32265532e-01, 1.24397151e-01, -1.60585701e+00,
          -2.14923292e-01, 9.14320275e-02, 4.63113695e-01,
          6.64570928e-02, -2.73949057e-01, -2.11439863e-01,
          3.87157649e-01, -2.16094449e-01, -2.63159513e+00,
          2.45772555e-01, 6.80298358e-03, -9.87461954e-03,
          8.18060935e-02, 8.00925028e-03, 1.75040439e-02, 1.45621179e-02,
          3.18160135e-04 ]
      - [ 4.06048775e-01, 2.70207644e+00, -6.00086308e+00,
          -1.84974849e+00, 1.15561724e+00, -2.48130798e+00,
          -6.54924750e-01, 3.31434518e-01, 2.06973577e+00,
          -6.78208470e-01, 1.73779154e+00, 9.20427620e-01,
          -1.08118355e+00, 1.58481288e+00, 3.08399536e-02,
          4.15102184e-01, -4.38505828e-01, 1.49279749e-02,
          7.37650096e-02, 1.87880278e-01, -3.25694755e-02,
          -1.83991510e-02, 1.49546405e-02, 1.24768905e-01,
          -9.62226931e-03, -3.24997753e-02, 7.65182963e-03,
          -8.25194363e-03, -3.75800719e-03 ]
      - [ -1.27052212e+00, -7.88388968e-01, 8.68345797e-01,
          -2.76199579e-01, 1.88167840e-01, 1.18801080e-01,
          -1.10654561e-02, 1.23613489e+00, -3.86011392e-01,
          -3.94724816e-01, 9.10120383e-02, 2.06251517e-01,
          7.65903234e-01, 5.89631610e-02, -4.34321202e-02,
          1.38724878e-01, 2.03692392e-01, -1.02869384e-02,
          2.50128340e-02, -6.09869212e-02, 1.09985612e-01,
          -1.11583211e-01, -3.79641019e-02, 1.15427654e-03,
          -1.29605252e-02, 6.40461361e-03, -2.04410008e-03,
          -4.49597230e-03, 1.81921409e-03 ]
      - [ 6.54940486e-01, -1.65807498e+00, -3.71707916e-01,
          2.00716853e+00, 2.75122547e+00, 8.79755795e-01,
          -7.74504721e-01, 7.82541931e-01, -8.16957414e-01,
          1.43737090e+00, -1.29201263e-01, 2.91200638e-01,
          -1.20009065e-01, 1.43949711e+00, 4.38860655e-01,
          2.37597734e-01, 1.26290405e+00, 3.67853940e-01,
          -1.17639616e-01, -4.76990528e-02, -4.43408079e-02,
          3.21432799e-02, -2.68881186e-03, 3.00432622e-01,
          4.29361984e-02, 2.97157407e-01, 7.20809167e-03,
          -1.63907814e-03, 4.85786842e-03 ]
      - [ 7.69665241e-01, 1.63853657e+00, -3.24115467e+00,
          -2.42978120e+00, 2.35759068e+00, -2.15675712e+00,
          5.75294852e-01, -4.06602561e-01, 9.90241289e-01,
          -6.30319417e-01, 3.65041941e-01, 5.74725688e-01,
          -9.86060917e-01, -1.07476676e+00, 4.65008348e-01,
          -1.78338599e+00, 4.84189093e-01, 1.03301359e-02,
          1.80820182e-01, 2.10025430e-01, -2.99375281e-02,
          -1.81109682e-01, -6.19371496e-02, 1.35533512e-02,
          -3.76580767e-02, 2.44619213e-02, -1.32524399e-02,
          5.09662321e-03, -1.98934367e-03 ]
      - [ -3.63499224e-01, 8.81690264e-01, 1.77550042e+00,
          -8.14202964e-01, -1.05752659e+00, -6.57283008e-01,
          -1.15337920e+00, 1.43617010e+00, -4.11275893e-01,
          -1.74863562e-01, 1.89135656e-01, 6.03144705e-01,
          -3.83877754e-01, -1.64054096e-01, 1.93738546e-02,
          2.01733917e-01, -2.00049773e-01, -1.79929584e-01,
          3.47632080e-01, -2.51394212e-01, -9.80387703e-02,
          -1.33396834e-01, -5.98790571e-02, -1.94377787e-02,
          1.53249670e-02, 2.21850015e-02, -1.22534484e-02,
          1.72240578e-03, -6.51740236e-03 ]
      - [ -8.14835906e-01, 3.36602497e+00, 2.20206308e+00,
          3.12030107e-01, -2.20843148e+00, 5.89659624e-03,
          -3.48872614e+00, 2.66764569e+00, 5.47706410e-02,
          3.77907716e-02, -1.27963684e-02, 2.09469008e+00,
          -1.01813078e+00, 1.05601124e-01, 1.25966275e+00,
          9.91305351e-01, -6.84255898e-01, -5.14335670e-02,
          -1.86011985e-01, 2.14296237e-01, -2.38620147e-01,
          -3.73018607e-02, -3.53861749e-02, -5.13274558e-02,
          -1.95342619e-02, -5.30299321e-02, 6.64773537e-03,
          2.30637053e-03, -4.25034389e-03 ]
      - [ -2.52469540e+00, -2.28247929e+00, -1.80980372e+00,
          1.74867487e+00, -8.78671050e-01, -4.34131026e-01,
          -1.70291901e+00, 9.66477156e-01, -1.89903274e-01,
          8.73769164e-01, -4.24085230e-01, 3.57924476e-02,
          5.16002178e-01, -6.63565338e-01, 3.37531082e-02,
          -1.88456595e+00, -6.47827804e-01, 1.10606754e+00,
          -9.19449776e-02, -1.39903858e-01, -1.38615564e-01,
          -6.29028827e-02, 7.58222723e-03, -2.84825861e-02,
          1.14590740e-02, 1.31716486e-02, 1.14389630e-02,
          -1.65974360e-03, 8.19427054e-03 ]
      - [ 1.48685181e+00, 2.45282483e+00, -5.49672508e+00,
          -2.74267483e+00, 8.03394496e-01, 3.05537522e-01,
          -1.34372994e-01, 3.23947310e-01, 6.29562020e-01,
          3.74717027e-01, 9.27371621e-01, 3.68609190e-01,
          -5.32728076e-01, 2.90717334e-01, -1.18726008e-01,
          -3.02577158e-03, -2.49430254e-01, -7.23944381e-02,
          -2.31163889e-01, -4.51723754e-01, -1.88336894e-02,
          -1.92565873e-01, 1.88685488e-02, -1.22489624e-01,
          3.48592773e-02, -7.14888573e-02, 3.19839176e-03,
          -8.84161890e-03, -7.89413601e-03 ]
      - [ -1.24393654e+00, 1.42082477e+00, -2.05248976e+00,
          -1.47432065e+00, 1.52090967e+00, -1.16086774e-01,
          -9.98347580e-01, -3.13057572e-01, 1.62004516e-01,
          9.89255548e-01, -1.23691094e+00, -9.95911181e-01,
          -1.01407707e+00, -8.08854178e-02, -5.87925985e-02,
          5.48122935e-02, -7.37878859e-01, 1.53447405e-01,
          -1.57278106e-01, -3.69260639e-01, 2.42645014e-02,
          -9.86322537e-02, 5.56473993e-02, 5.51321916e-02,
          -2.24025995e-02, -4.74402569e-02, 2.02808026e-02,
          1.46894120e-02, -5.16058702e-04 ]
      - [ -6.03499234e-01, 1.84312010e+00, -2.11650506e-01,
          -2.58820534e+00, -1.65348291e+00, 1.40535879e+00,
          8.04917097e-01, 7.21759021e-01, -9.19539511e-01,
          1.44483417e-01, -1.36565372e-01, -3.35710227e-01,
          9.36068520e-02, 6.04809999e-01, -3.21475685e-01,
          -1.66452542e-01, 1.31450102e-01, -2.05578312e-01,
          -4.33912240e-02, -3.29720140e-01, -1.18497878e-01,
          3.27215552e-01, -3.08354851e-02, 1.80087388e-02,
          2.14303527e-02, -4.73479554e-02, 2.72058230e-02,
          2.23165378e-02, 6.76720915e-03 ]
      - [ -2.11211324e+00, -4.87395912e-01, -2.39548254e+00,
          -2.74092644e-01, 4.70202379e-02, -1.84214449e+00,
          7.79762328e-01, -8.92407522e-02, 9.30352688e-01,
          1.03317246e-01, -6.32114947e-01, -1.77530333e-01,
          4.96024460e-01, -2.64514834e-01, 4.46084082e-01,
          -6.79925919e-01, -8.74693274e-01, -1.12680458e-01,
          -7.84955993e-02, -2.11581528e-01, -2.07539722e-02,
          -2.36211121e-01, 3.24673839e-02, 1.92259625e-02,
          3.31971273e-02, 6.38271421e-02, 6.18830742e-03,
          -9.53282230e-03, -1.52897427e-03 ]
      - [ -3.52710795e+00, -4.42361385e-01, 1.80372024e+00,
          -3.10772872e+00, -1.42035723e-01, -1.34247339e+00,
          8.82435217e-02, 6.43346459e-02, -4.64149475e-01,
          5.41470885e-01, -5.52399337e-01, -1.95308536e-01,
          1.78339630e-01, -1.11386754e-01, -9.66587365e-01,
          1.32728040e-01, -3.21634322e-01, 6.48622438e-02,
          2.27970973e-01, -2.90692568e-01, -1.37693250e+00,
          -3.44695002e-02, 9.31001361e-03, -3.17655653e-02,
          4.44976725e-02, -2.22387537e-02, 8.56519025e-03,
          -5.03131561e-03, -1.14976475e-03 ]
      - [ -3.40484810e+00, -7.83642650e-01, 5.81642210e-01,
          -6.95923865e-01, 2.08823264e-01, -1.20460379e+00,
          -1.55484572e-01, -3.17836612e-01, 4.24272120e-01,
          1.33179903e+00, -4.05724108e-01, -1.40863895e-01,
          2.82388806e-01, 4.04040590e-02, -7.33280838e-01,
          -2.19652560e-02, 4.22529951e-02, 8.01209435e-02,
          1.26977667e-01, -5.39693497e-02, 8.11233446e-02,
          -9.66147557e-02, 1.17850641e-03, 2.15306785e-03,
          1.18519529e-04, 2.78787762e-02, -1.12422174e-02,
          -1.55318982e-03, -2.75032526e-05 ]
      - [ 5.84739113e+00, -2.74185991e+00, 6.74885154e-01,
          7.76651025e-01, -2.97111422e-01, 9.83910710e-02,
          5.40059388e-01, -1.01234865e+00, 1.10637569e+00,
          1.58400857e+00, 1.71595216e-01, -1.16196096e-01,
          4.40678686e-01, 3.29023927e-01, -3.93742025e-02,
          -3.85896653e-01, 2.67228425e-01, -1.95128381e-01,
          2.29620293e-01, 2.66095668e-01, 2.51576453e-02,
          -2.27220934e-02, 5.06267743e-03, 5.44018531e-03,
          -2.06569452e-02, -2.57456042e-02, -3.97654995e-02,
          1.46287698e-02, 1.38409698e-04 ]
      - [ 2.23037183e-01, 1.18364942e+00, -4.62730694e+00,
          -4.66797113e-01, 2.63825096e-02, -1.14991605e+00,
          1.48291767e+00, -9.90588665e-01, 6.32971764e-01,
          -6.12154543e-01, 2.41642666e+00, 2.14882922e+00,
          8.20124447e-01, -4.57981937e-02, 1.15968406e-01,
          5.91047294e-02, 7.13553607e-01, 9.27027315e-02,
          -2.21497223e-01, -3.88817698e-01, 1.71666162e-03,
          -5.79495765e-02, -2.82091480e-02, 2.87476219e-02,
          -1.62104145e-02, -6.08511008e-02, 4.68622819e-02,
          9.64446645e-03, 1.54243317e-02 ]
      - [ 4.88481808e+00, -1.62461948e+00, 5.91152906e-01,
          3.57194215e-01, 1.79526842e+00, 6.75006449e-01,
          -1.13883419e-02, -7.64502287e-01, 8.47974420e-01,
          1.19859390e-01, 2.90391505e-01, -1.17843650e-01,
          -9.38551903e-01, -7.40893304e-01, -5.72477221e-01,
          -1.68416351e-01, -4.15275484e-01, -9.70151871e-02,
          -2.19793364e-01, -1.82768643e-01, 1.03930689e-01,
          -5.48384935e-02, -8.12981874e-02, 1.01181254e-01,
          -4.08387557e-02, -3.78985517e-02, -2.31827851e-02,
          2.39490345e-02, 5.46517456e-03 ]
      - [ -1.80410850e+00, 1.99012923e+00, 2.32459211e+00,
          -1.18331730e+00, -6.50910735e-02, -5.01694858e-01,
          1.82725653e-01, 1.47406533e-01, -1.00050271e+00,
          2.18050614e-01, 5.84836721e-01, -5.43630242e-01,
          -2.31422111e-01, 4.40831125e-01, -2.10806802e-01,
          -7.55932331e-02, 2.06197858e-01, -2.71759601e-03,
          2.43613183e-01, -1.71886131e-01, 3.75020690e-02,
          2.19602697e-02, -9.14915930e-03, -8.28061812e-03,
          2.28135753e-02, 1.78272221e-02, 2.11309530e-02, 4.61916439e-03,
          -1.31955778e-03 ]
      - [ -4.23897696e+00, -3.79991867e-02, -6.07111037e-01,
          -1.62296128e+00, -1.16464877e+00, -2.15361282e-01,
          -2.22508952e-01, -1.54092574e+00, -1.62799239e+00,
          -4.13896322e-01, -4.56045121e-01, -2.86308423e-05,
          -6.35098279e-01, -3.53372246e-01, -1.15582561e+00,
          -2.88312435e-01, -3.82819593e-01, 1.34435833e-01,
          -1.63055435e-01, -2.05072574e-02, -6.81781769e-01,
          5.05972445e-01, -2.52581108e-02, -8.60216692e-02,
          -1.67064503e-01, 8.60631391e-02, -1.12503571e-02,
          6.19522929e-02, -2.34806459e-04 ]
      - [ 3.96548510e+00, 1.09104383e+00, -1.02133055e+01,
          -2.30667043e+00, 3.31120253e-01, -2.39858413e+00,
          -1.67200470e+00, 5.30442119e-01, 1.94302702e+00,
          4.35853191e-02, 1.56835330e+00, 1.46701366e-01,
          -3.36680979e-01, 1.09121466e+00, -9.37369645e-01,
          8.96393895e-01, 8.28851283e-01, 5.30796945e-01, 1.43428326e-01,
          5.14350295e-01, 1.79011598e-02, 1.69531092e-01, 4.88642137e-03,
          -2.92488188e-01, 1.87364534e-01, -2.85811182e-02,
          -6.47533685e-02, 5.19068874e-02, 2.87525798e-03 ]
      - [ 2.24369431e+00, 7.10235119e+00, 2.34755084e-01,
          -3.74975300e+00, 5.76281309e-01, -1.34880805e+00,
          1.91925681e+00, 2.09160149e-01, 1.33182549e+00,
          -2.49221563e-01, -9.37143505e-01, 1.92895281e+00,
          1.09037960e+00, -1.44389725e+00, 5.19560695e-01,
          -1.53478041e-01, -1.60623372e-01, -1.32019386e-01,
          -4.10476178e-02, 1.67530730e-01, 1.23260677e-01,
          9.68210101e-02, 2.66816672e-02, 7.03645945e-02,
          -2.52851862e-02, -7.38559142e-02, -2.61614174e-02,
          -2.47182939e-02, -7.39941699e-03 ]
      - [ -2.64799047e+00, -1.03338325e+00, -1.25670314e+00,
          6.39511168e-01, -4.49672014e-01, 3.66248906e-01,
          6.54708803e-01, 2.36440867e-01, -3.53180438e-01,
          -4.32509094e-01, -7.41114080e-01, -2.11447671e-01,
          -5.64642958e-02, -1.70598119e-01, 5.95877707e-01,
          2.89704204e-01, 2.67362326e-01, 7.50458002e-01,
          -5.13648055e-02, 8.61240476e-02, -6.79374039e-02,
          1.03557400e-01, 1.38071796e-03, -2.15238333e-02,
          -6.57478720e-02, 2.65138596e-02, -2.09762231e-02,
          -5.15390607e-03, -1.13285799e-03 ]
      - [ -2.01433897e+00, 1.65921199e+00, 2.03813410e+00,
          -2.50670123e+00, -1.68739760e+00, -9.64267254e-01,
          -4.55669314e-01, -1.38483882e-01, -1.18974817e+00,
          5.28956294e-01, 6.31149948e-01, -1.06884271e-01,
          -1.47588885e+00, -7.72028044e-02, 2.63740979e-02,
          -8.89932513e-02, 1.66477321e-03, -2.39950463e-01,
          2.27921918e-01, -2.03111842e-01, 1.72403548e-02,
          -7.32528185e-03, -6.96227551e-02, -2.21337061e-02,
          5.96331805e-02, 3.23965750e-03, 5.94411697e-03,
          -7.29628315e-04, -1.36856025e-03 ]
      - [ 6.89496756e+00, -3.19515419e+00, 7.54811645e-01,
          1.05737627e+00, -1.50677398e-01, 6.30200624e-01,
          6.30277157e-01, -1.17359936e+00, 1.28422284e+00,
          1.52163684e+00, 1.23021290e-01, 2.45021135e-02, 6.77039921e-01,
          6.80463672e-01, -9.69705880e-02, 1.44265324e-01,
          1.32886201e-01, 1.21619940e-01, 1.14296444e-01, 2.74783969e-01,
          6.02466986e-02, 7.83728494e-04, -1.48703724e-01,
          1.72196608e-02, -2.13548802e-02, -4.84005921e-02,
          -6.05277764e-03, -2.37204172e-02, 3.30075715e-03 ]
      - [ -2.96062088e+00, -1.79899558e-01, 5.86205602e-01,
          3.02180386e+00, -9.69418228e-01, -4.98370111e-01,
          -2.49452782e+00, -6.93401515e-01, 2.72316426e-01,
          6.50724173e-02, -4.69230264e-01, 1.43094707e+00,
          -1.41217744e+00, -7.78290331e-01, 7.25636542e-01,
          1.32281542e-01, -7.52007589e-02, 3.13175112e-01,
          -4.29326385e-01, -6.21490516e-02, 8.40746641e-01,
          8.83659050e-02, 1.74099263e-02, 5.79929799e-02, 2.09420562e-01,
          4.88638356e-02, 5.90819754e-02, 1.25742322e-02,
          -2.03445889e-02 ]
      - [ 1.96789229e+00, -1.93968904e+00, -1.81450024e-01,
          6.08067334e-01, 2.00090098e+00, 2.42116645e-01,
          -1.21727550e+00, 1.06444180e+00, -7.89712369e-01,
          6.81850910e-01, -4.00517374e-01, 8.31706703e-01,
          -5.17390311e-01, 4.15415704e-01, 2.69118905e-01,
          -2.00254425e-01, 1.75171196e-01, -3.62653911e-01,
          -5.63844919e-01, -8.03924918e-01, -7.53039867e-02,
          3.60945724e-02, 5.39848320e-02, 1.38324901e-01,
          -4.46820632e-02, -2.05883123e-02, 3.01161483e-02,
          -5.94983634e-04, 6.27955329e-03 ]
      - [ 6.09984159e-01, 9.62054431e-01, -4.66051769e+00,
          -1.91935742e+00, 1.70202005e+00, -1.34979308e+00,
          7.70859838e-01, -2.14824632e-01, 1.22376239e+00,
          3.16110462e-01, 1.69620633e+00, 1.69269013e+00,
          -1.08990276e+00, 8.13392177e-02, -3.89119476e-01,
          -7.35312641e-01, 2.56225646e-01, -1.29137591e-01,
          4.61921878e-02, -2.73540765e-01, -5.12352474e-02,
          -1.91365957e-01, -3.94154079e-02, -6.35093031e-03,
          -5.08390777e-02, 2.23060548e-02, -3.10730284e-05,
          4.80796996e-04, 7.87440687e-03 ]
      - [ 2.26747513e+00, 4.61374617e+00, -1.66303349e+00,
          9.55623865e-01, 3.56378824e-01, 6.97049260e-01,
          -1.51147008e+00, -9.26813722e-01, -1.99671328e+00,
          -6.12142324e-01, -5.49266160e-01, 2.79816031e-01,
          1.83289778e+00, -9.01870728e-02, 2.70391673e-01,
          4.98823971e-01, -2.86662459e-01, 2.08200544e-01,
          -6.40695840e-02, 2.05239445e-01, 2.58211225e-01,
          -2.41524935e-01, 8.33678991e-02, 5.63494861e-02,
          -8.03791434e-02, -1.23712502e-01, 4.71130153e-03,
          5.00279199e-03, 1.40036074e-02 ]
      - [ 4.62314653e+00, -2.34666157e+00, -5.93365207e-02,
          1.02283728e+00, -3.21001738e-01, -7.21343577e-01,
          1.02761889e+00, 3.91445786e-01, -1.15057445e+00,
          5.48738420e-01, 8.38389620e-02, -1.79075688e-01,
          8.39980245e-02, -6.46974966e-02, -3.91558148e-02,
          3.18178385e-01, -3.21796119e-01, -1.40098020e-01,
          -2.55738467e-01, 9.93180051e-02, 1.16098747e-01,
          -8.95333737e-02, 1.19833209e-01, -2.85077486e-02,
          -1.36486040e-02, -2.66495124e-02, -6.87313499e-03,
          6.40048599e-03, 4.63776756e-03 ]
      - [ -2.45024443e+00, 2.56976318e+00, 1.89285696e-01,
          -7.89990902e-01, 1.71346784e-01, 5.50096750e-01,
          2.84128356e+00, -1.26102805e+00, 1.00268352e+00,
          8.26726615e-01, -3.22624612e+00, 1.19118845e+00,
          -4.64712054e-01, -4.10979450e-01, 6.46693647e-01,
          4.80436534e-01, -1.78795591e-01, -1.46709993e-01,
          2.17847183e-01, 3.32354903e-01, -2.57793218e-01,
          -2.29845583e-01, 8.31637811e-03, 6.79201027e-03,
          3.16934697e-02, 5.57309762e-02, -3.42323780e-02,
          -1.29056945e-02, 1.16862729e-02 ]
      - [ -1.44040239e+00, 2.67757130e+00, -3.49549830e-01,
          -4.06146348e-01, -5.50613582e-01, -2.00996947e+00,
          2.85275131e-01, 5.78044176e-01, 1.00997686e+00, 1.07295364e-01,
          -9.71994281e-01, -4.34131205e-01, -5.36843300e-01,
          -7.11008608e-01, -3.24783057e-01, -2.93633938e-01,
          4.56625372e-01, 4.46728736e-01, -3.40225309e-01,
          5.12054682e-01, 4.61909443e-01, -1.40614390e-01,
          1.51367132e-02, 8.58152881e-02, 8.20544437e-02, 3.59541103e-02,
          -9.52404086e-03, -1.01241900e-03, -3.56650772e-03 ]
      - [ -2.48848820e+00, -1.02754772e+00, 4.65826750e-01,
          5.59550226e-01, 2.57795513e-01, 5.46012186e-02,
          -3.96355331e-01, -6.12140417e-01, 3.17246377e-01,
          -1.14973605e-01, -2.04558522e-02, -4.20105070e-01,
          4.24681574e-01, -1.72582522e-01, -7.95393959e-02,
          -3.70611288e-02, 6.84510842e-02, 7.03711286e-02,
          2.76245438e-02, -6.44519776e-02, 8.39335471e-02,
          -2.29033995e-02, -3.74136213e-03, -1.26724448e-02,
          -2.64060386e-02, 6.24747621e-03, -1.35444375e-02,
          -1.52505925e-02, 3.01014842e-03 ]
      - [ 4.51545811e+00, -1.57909501e+00, 1.35346699e+00,
          -3.59037071e-01, 5.61796904e-01, 5.56657672e-01,
          1.90206110e-01, -1.24535060e+00, 7.34512269e-01,
          -1.68944478e-01, 4.28924531e-01, 2.13842969e-02,
          1.27597058e+00, -1.62756428e-01, 1.72682345e-01,
          5.34471273e-01, -5.31856716e-01, -3.05377897e-02,
          -7.81012177e-02, 4.90761325e-02, 1.12520978e-01,
          -4.69495393e-02, 8.78959224e-02, -6.59754314e-03,
          -5.23933358e-02, -3.07220761e-02, -1.21692605e-02,
          1.08248238e-02, 3.28050414e-03 ]
      - [ -1.11455119e+00, 9.68620121e-01, 6.81127250e-01,
          -1.54909945e+00, 1.93106544e+00, 3.75489771e-01,
          -4.10786152e-01, 7.82650530e-01, -7.30685115e-01,
          -9.66265619e-01, 2.69148964e-02, -6.12758756e-01,
          -6.69951916e-01, 3.55446666e-01, 8.70329216e-02,
          -1.42349288e-01, 3.54709029e-01, 2.01042056e-01,
          -4.96595837e-02, 2.08154842e-01, -5.85388914e-02,
          -1.20089084e-01, 1.37563667e-03, 1.72136784e-01,
          -8.94983783e-02, -3.30027342e-02, 2.67136190e-02,
          -1.12705342e-02, -4.85753315e-03 ]
      - [ 5.44898462e+00, -1.70325041e+00, 1.10232651e-01,
          -3.17488104e-01, 2.92747283e+00, 1.35074449e+00,
          -5.64758718e-01, -1.09157360e+00, 7.34122932e-01,
          3.45532656e-01, 2.93272436e-01, -1.08926930e-01,
          -1.37510644e-02, -1.91298753e-01, 6.31519973e-01,
          3.02999645e-01, -6.63311660e-01, -8.75419527e-02,
          -5.12238108e-02, 8.22506025e-02, -1.23449871e-02,
          4.83733369e-03, 1.61891952e-01, -9.25431624e-02,
          1.19223986e-02, -1.06569659e-02, 5.61929634e-03,
          9.83624253e-03, 5.31316455e-03 ]
      - [ 5.40891838e+00, -2.56351590e+00, 9.47046936e-01,
          8.68808292e-03, -6.67584717e-01, 3.17959338e-01,
          2.43105471e-01, -1.17965543e+00, 1.06557131e+00,
          -4.67660464e-02, 2.82078952e-01, -2.14281693e-01,
          1.21796787e-01, -1.86001033e-01, 3.07888865e-01,
          2.95477629e-01, -6.71861231e-01, -1.55789822e-01,
          -2.86392003e-01, -3.50321382e-02, -5.28232940e-02,
          -3.27676125e-02, 3.16222832e-02, -3.25085223e-02,
          -3.27055603e-02, 1.26442313e-02, -1.73479579e-02,
          1.52260414e-03, -4.18235868e-04 ]
      - [ 4.73154926e+00, -2.01900983e+00, 6.77896619e-01,
          5.20285785e-01, 1.24567272e-02, -6.00784600e-01,
          8.57188821e-01, 2.31483623e-01, -1.34383214e+00,
          -4.13336068e-01, -1.30148411e-01, 6.30618751e-01,
          2.75560856e-01, -3.00100595e-02, -1.44757226e-01,
          -8.42446834e-02, -2.73101121e-01, -1.32163703e-01,
          -1.80333003e-01, -1.85768977e-01, 1.01781711e-01,
          5.28975166e-02, 1.72073483e-01, -3.87096964e-02,
          -5.23307268e-03, -1.54607808e-02, 1.37263760e-02,
          1.44348368e-02, 6.74993498e-03 ]
      - [ -2.48210454e+00, 4.01030660e-01, 6.63690209e-01,
          -3.79638344e-01, 5.91625907e-02, -3.39578241e-01,
          4.49453413e-01, 2.25546598e-01, -6.08848214e-01,
          1.87157497e-01, 7.37146512e-02, -6.22933924e-01,
          1.45882443e-01, -1.28614545e-01, -1.24780878e-01,
          1.06798232e-01, 1.44108966e-01, 3.61359417e-02,
          -7.69643113e-02, 2.76163872e-03, -9.52178054e-03,
          -3.54516543e-02, -1.04077375e-02, -2.64578243e-03,
          -9.84491687e-03, 2.74966601e-02, 4.53006243e-03,
          1.68730109e-03, -7.29993742e-04 ]
      - [ 2.40066767e+00, -1.96006072e+00, 4.71914858e-01,
          1.32162058e+00, 4.54773575e-01, -2.43626311e-01,
          -3.74491423e-01, 7.50269651e-01, -8.41317177e-01,
          -1.75827622e-01, -4.81671929e-01, 1.18515909e+00,
          8.70287597e-01, 3.85965317e-01, 5.52277863e-01, 7.91029725e-03,
          6.50518060e-01, 1.80993542e-01, -5.20834982e-01,
          -9.36710358e-01, -1.14595518e-02, 1.27950937e-01,
          8.22393373e-02, 6.02812283e-02, 9.47821438e-02, 1.52974948e-01,
          3.94059084e-02, 1.61137488e-02, 1.58429064e-03 ]
      - [ -1.98177850e+00, 5.21044135e-01, 1.75030720e+00,
          -1.28456509e+00, 5.62348545e-01, -5.18891275e-01,
          9.41192091e-01, 9.77960408e-01, 2.67381579e-01, 1.77491105e+00,
          5.67965150e-01, -1.53884202e-01, 6.86627507e-01,
          4.47843373e-01, 3.40052918e-02, 2.64759511e-01, 7.16577470e-02,
          -4.26800698e-01, 1.55485258e-01, 9.30891559e-02,
          6.96287081e-02, 5.28056547e-02, -1.34608392e-02,
          4.57776599e-02, 6.58388361e-02, 9.30621661e-03, 1.68919433e-02,
          -6.34102663e-03, -4.91937855e-03 ]
      - [ 2.21613884e-01, 2.86272049e+00, -1.45081758e+00,
          -2.29899311e+00, 1.47239161e+00, 7.53273726e-01,
          -1.21057594e+00, -6.63084030e-01, -3.23665887e-01,
          -5.40217757e-01, -4.53235805e-01, -1.09738111e+00,
          -6.90893173e-01, -3.55752885e-01, 2.44756013e-01,
          -5.70118487e-01, -2.56597083e-02, -1.43284932e-01,
          7.64810517e-02, 1.28895476e-01, -4.44346544e-04,
          -2.09391043e-01, 6.07781345e-03, 4.23987806e-02,
          -9.04216152e-03, -5.84678203e-02, 8.91338661e-03,
          -6.23369170e-03, -6.15726039e-03 ]
      - [ 3.51933122e+00, 4.87257928e-01, -2.11166596e+00,
          -1.80707097e+00, -1.66403866e+00, -2.63335377e-01,
          -1.32256317e+00, -1.47484612e+00, -2.19074860e-01,
          5.00958383e-01, -1.67958602e-01, -1.96282756e+00,
          7.71967828e-01, 5.64468913e-02, -1.59771129e-01,
          2.30168805e-01, -1.25820726e-01, -5.21341898e-02,
          2.87237346e-01, 3.73264939e-01, 1.52504474e-01,
          -6.01521647e-03, 8.51274207e-02, 1.41051710e-01,
          5.26975654e-02, -5.47296144e-02, -3.63150910e-02,
          -6.36739098e-03, -7.81785138e-03 ]
      - [ -2.51535249e+00, 1.52933884e+00, -3.00709176e+00,
          1.41880846e+00, 2.85712957e-01, -5.70877671e-01,
          2.74332076e-01, -2.41636372e+00, -7.62420058e-01,
          -1.86912864e-01, 9.41156507e-01, 1.81005692e+00,
          4.65434641e-02, 4.55801815e-01, -2.04763666e-01,
          1.21453142e+00, -3.26021641e-01, 2.19977885e-01,
          -2.20863849e-01, -4.06429827e-01, 1.00979291e-01,
          4.77895707e-01, 2.73046140e-02, -4.43290658e-02,
          -1.48739085e-01, 1.88140490e-03, -6.56081066e-02,
          -4.73482721e-02, -7.84584582e-02 ]
      - [ -1.20629275e+00, 3.03769469e-01, 4.26418364e-01,
          -4.78423744e-01, 5.98927617e-01, -2.99039751e-01,
          -4.73056108e-01, 7.02784538e-01, -6.33514106e-01,
          -4.34942067e-01, 3.27604443e-01, -2.43117735e-01,
          1.28372180e+00, -2.61345804e-01, 5.41698277e-01,
          1.98368669e-01, 1.45415021e-02, -3.16781133e-01,
          8.07415321e-02, 1.31747708e-01, -9.95931774e-02,
          -1.28337681e-01, 1.79311112e-02, 2.53215116e-02,
          -2.80072037e-02, -2.30673626e-02, 1.31703578e-02,
          -1.03722401e-02, -1.07483659e-03 ]
      - [ -6.77382529e-01, -4.80349585e-02, -2.82923913e+00,
          -9.42263544e-01, 1.19795489e+00, 5.38895667e-01,
          -1.93818891e+00, 1.29452145e+00, -3.14582229e-01,
          1.69933796e-01, -1.79717779e-01, -1.45760977e+00,
          -5.33850551e-01, -3.14575657e-02, -2.12382734e-01,
          2.15083912e-01, -7.10906386e-01, 2.81646341e-01,
          -8.09319690e-02, -7.23244920e-02, 5.05229421e-02,
          1.06480844e-01, 7.31074288e-02, 8.00672099e-02, 3.78376385e-03,
          1.06836736e-01, 3.45862359e-02, 4.07090783e-02, 6.50911170e-05 ]
      - [ 4.86751080e+00, -2.67191029e+00, 1.14407904e-01,
          9.30081666e-01, -1.67001009e-01, -1.69378877e-01,
          3.45410347e-01, -1.08814538e+00, 6.28100753e-01,
          -9.44261551e-01, -2.33196486e-02, -1.95403188e-01,
          3.29887807e-01, -5.26439726e-01, -2.73051947e-01,
          1.07892500e-02, 2.36680046e-01, -4.77999747e-01,
          2.87074506e-01, 1.31445918e-02, -3.14792432e-02,
          5.34965917e-02, 1.10503569e-01, 1.81044992e-02, 1.51022542e-02,
          -3.53755732e-03, -9.74354986e-03, 2.49253307e-02,
          5.63703710e-03 ]
      - [ 5.21822691e+00, -3.00318742e+00, 3.73939067e-01,
          1.07043302e+00, -9.57103223e-02, 4.11122739e-01,
          4.85473692e-01, -1.11323762e+00, 1.05497479e+00,
          -6.09767884e-02, 2.55028903e-01, -4.67468649e-01,
          4.92626399e-01, -9.94655266e-02, 3.25567007e-01,
          6.50992930e-01, -1.57705262e-01, 5.61456978e-02,
          -2.50126809e-01, 1.92771643e-01, -3.40750702e-02,
          -2.02919897e-02, 1.16770566e-01, 3.01247602e-03,
          -1.23164551e-02, 8.70605651e-03, -5.80191496e-04,
          2.69853044e-03, 4.82897414e-03 ]
      - [ 6.46445227e+00, -1.45422912e+00, -4.32426363e-01,
          4.95132715e-01, -1.19241786e+00, -1.13084197e+00,
          6.66813910e-01, 3.92088294e-01, -1.26270592e+00,
          -2.16579273e-01, -2.80031592e-01, -5.78010738e-01,
          -4.07904655e-01, 9.56043899e-02, -5.57433248e-01,
          2.93665677e-01, -2.00205609e-01, -4.14535612e-01,
          -5.19712150e-01, 2.49973357e-01, 4.12895083e-01,
          -1.58438563e-01, 2.72715581e-04, 8.69650207e-03,
          -2.67334078e-02, 3.40154767e-02, -2.11616326e-02,
          -9.91778634e-03, -7.33379368e-03 ]
      - [ 2.76223302e+00, -1.31202745e+00, 5.69890678e-01,
          -1.19984016e-01, 2.28931236e+00, 3.80317718e-01,
          -9.95895267e-01, 7.75891185e-01, -1.16936529e+00,
          2.34793294e-02, -2.20823050e-01, 1.31747687e+00,
          -2.87144810e-01, 3.10454935e-01, 3.97291094e-01,
          3.62657994e-01, 4.02253643e-02, -2.81868786e-01,
          -4.30272400e-01, -6.63854003e-01, -1.06201872e-01,
          8.59099180e-02, 6.34346604e-02, 1.96709335e-01,
          -1.50297172e-02, 1.03127629e-01, 3.78462374e-02,
          1.08776251e-02, 3.40762315e-03 ]
      - [ 5.74395514e+00, 4.16539812e+00, 3.03539753e+00,
          -3.42918783e-01, -1.19051528e+00, 3.29726815e-01,
          -5.98639011e-01, -9.60913718e-01, 1.16207147e+00,
          -5.99374063e-02, 5.17057657e-01, -6.19645357e-01,
          -8.83117199e-01, 6.37458324e-01, 9.21084106e-01,
          7.69174874e-01, -3.29149485e-01, -2.55612820e-01,
          -8.53410959e-01, 1.06792271e-01, 8.56572390e-01,
          3.15481454e-01, 1.51520697e-02, 1.17498636e-01, 9.91312563e-02,
          1.79380864e-01, -5.96483313e-02, -2.69693919e-02,
          -7.24415900e-03 ]
      - [ -1.20841396e+00, 1.53441441e+00, -5.91367841e-01,
          -1.07456803e+00, -8.81682813e-01, -6.93975329e-01,
          -1.17600143e+00, -4.53463465e-01, -1.28519964e+00,
          3.71509373e-01, 3.79196972e-01, -7.47879505e-01,
          2.46202067e-01, -3.95521373e-01, -3.33504975e-01,
          1.87038202e-02, -5.29995084e-01, 2.59663433e-01,
          -2.18878746e-01, 1.22807816e-01, 1.90067783e-01,
          -1.78319991e-01, 4.90591712e-02, 9.97305661e-03,
          -1.84948854e-02, -2.80256048e-02, 1.55469859e-02,
          7.32171210e-03, -7.57076952e-04 ]
      - [ -1.19338930e+00, 1.96864951e+00, -3.11194301e+00,
          7.84652352e-01, -4.83839393e-01, 2.05976605e+00,
          5.07854939e-01, -1.73770726e+00, -2.15371943e+00,
          -2.24270493e-01, 1.07903612e+00, 2.52583265e-01,
          8.07435989e-01, -4.61243004e-01, -4.04680669e-01,
          5.50422668e-01, 5.79623520e-01, -5.78690954e-02,
          -1.53350845e-01, -6.17630541e-01, -1.85997933e-01,
          4.04379994e-01, -1.09174876e-02, -3.26200724e-02,
          -1.95287943e-01, 1.35040721e-02, -5.08512072e-02,
          -3.04232594e-02, -3.64404581e-02 ]
      - [ 6.63596582e+00, -2.12648225e+00, -5.05991757e-01,
          3.74253482e-01, -9.66698527e-01, -8.39931309e-01,
          7.00203419e-01, 3.81952792e-01, -1.35949779e+00,
          -3.04012120e-01, -4.64029968e-01, -4.37201262e-01,
          4.90120202e-02, 5.51869094e-01, -9.00190651e-01,
          2.38232449e-01, -2.24200889e-01, -2.02367634e-01,
          1.73842490e-01, -1.63018405e-02, 6.58516735e-02,
          -1.16158098e-01, 6.20719381e-02, -1.12629794e-02,
          -4.07026559e-02, 2.65094358e-02, 4.59122425e-03,
          -2.85925940e-02, -3.21748620e-03 ]
      - [ 7.47684240e+00, -1.09610510e+00, -6.98602676e-01,
          -1.44207811e+00, 2.14495969e+00, -1.55019894e-01,
          -6.66758418e-02, 1.32036710e+00, -9.99757469e-01,
          -2.91686445e-01, -2.74607688e-01, -2.62232840e-01,
          -2.63249636e-01, -2.62400091e-01, 3.09187293e-01,
          -2.15396862e-02, -5.55970848e-01, 2.38919556e-01,
          -2.85687566e-01, 2.88040847e-01, 1.17136784e-01,
          -6.51963279e-02, 4.16905582e-02, -1.19202383e-01,
          -2.01995466e-02, 1.97628736e-02, -3.17369998e-02,
          6.65490376e-03, -1.51542323e-02 ]
      - [ -2.45625734e+00, -1.21272290e+00, 3.55029851e-01,
          1.02562642e+00, -4.85726267e-01, -9.28389251e-01,
          -7.21879900e-01, -3.64075154e-01, 4.41745013e-01,
          -3.25270027e-01, -2.19863549e-01, -7.91888595e-01,
          -6.16996706e-01, -2.58455217e-01, 4.00923252e-01,
          -3.40013951e-01, 8.00713748e-02, -1.03716133e-03,
          -6.53128102e-02, -3.46943289e-02, -9.63916257e-02,
          -6.91629797e-02, -2.06813905e-02, -2.09985264e-02,
          1.50558762e-02, 2.27019861e-02, -1.29895872e-02,
          -9.66546778e-03, 2.64887395e-03 ]
      - [ 1.18498778e+00, -2.02343941e+00, -1.78918272e-01,
          1.10330534e+00, -5.01931846e-01, -7.05004811e-01,
          2.30356768e-01, 7.17540741e-01, -7.13850975e-01,
